digraph Tree {
node [shape=box, fontname="helvetica"] ;
edge [fontname="helvetica"] ;
0 [label="flee <= 1.5\nentropy = 0.81\nsamples = 2930\nvalue = [2199, 731]\nclass = No"] ;
1 [label="race <= 2.5\nentropy = 0.497\nsamples = 817\nvalue = [728, 89]\nclass = No"] ;
0 -> 1 [labeldistance=2.5, labelangle=45, headlabel="True"] ;
2 [label="armed <= 40.0\nentropy = 0.392\nsamples = 440\nvalue = [406, 34]\nclass = No"] ;
1 -> 2 ;
3 [label="flee <= 0.5\nentropy = 0.315\nsamples = 281\nvalue = [265, 16]\nclass = No"] ;
2 -> 3 ;
4 [label="body_camera <= 0.5\nentropy = 0.458\nsamples = 114\nvalue = [103, 11]\nclass = No"] ;
3 -> 4 ;
5 [label="threat_level <= 1.5\nentropy = 0.391\nsamples = 104\nvalue = [96, 8]\nclass = No"] ;
4 -> 5 ;
6 [label="age <= 19.5\nentropy = 0.361\nsamples = 102\nvalue = [95, 7]\nclass = No"] ;
5 -> 6 ;
7 [label="age <= 17.5\nentropy = 0.65\nsamples = 12\nvalue = [10, 2]\nclass = No"] ;
6 -> 7 ;
8 [label="entropy = 0.0\nsamples = 4\nvalue = [4, 0]\nclass = No"] ;
7 -> 8 ;
9 [label="threat_level <= 0.5\nentropy = 0.811\nsamples = 8\nvalue = [6, 2]\nclass = No"] ;
7 -> 9 ;
10 [label="age <= 18.5\nentropy = 0.65\nsamples = 6\nvalue = [5, 1]\nclass = No"] ;
9 -> 10 ;
11 [label="race <= 1.5\nentropy = 0.918\nsamples = 3\nvalue = [2, 1]\nclass = No"] ;
10 -> 11 ;
12 [label="entropy = 0.0\nsamples = 1\nvalue = [1, 0]\nclass = No"] ;
11 -> 12 ;
13 [label="entropy = 1.0\nsamples = 2\nvalue = [1, 1]\nclass = No"] ;
11 -> 13 ;
14 [label="entropy = 0.0\nsamples = 3\nvalue = [3, 0]\nclass = No"] ;
10 -> 14 ;
15 [label="entropy = 1.0\nsamples = 2\nvalue = [1, 1]\nclass = No"] ;
9 -> 15 ;
16 [label="age <= 27.5\nentropy = 0.31\nsamples = 90\nvalue = [85, 5]\nclass = No"] ;
6 -> 16 ;
17 [label="entropy = 0.0\nsamples = 24\nvalue = [24, 0]\nclass = No"] ;
16 -> 17 ;
18 [label="age <= 29.5\nentropy = 0.387\nsamples = 66\nvalue = [61, 5]\nclass = No"] ;
16 -> 18 ;
19 [label="race <= 1.5\nentropy = 0.684\nsamples = 11\nvalue = [9, 2]\nclass = No"] ;
18 -> 19 ;
20 [label="age <= 28.5\nentropy = 0.863\nsamples = 7\nvalue = [5, 2]\nclass = No"] ;
19 -> 20 ;
21 [label="entropy = 0.811\nsamples = 4\nvalue = [3, 1]\nclass = No"] ;
20 -> 21 ;
22 [label="entropy = 0.918\nsamples = 3\nvalue = [2, 1]\nclass = No"] ;
20 -> 22 ;
23 [label="entropy = 0.0\nsamples = 4\nvalue = [4, 0]\nclass = No"] ;
19 -> 23 ;
24 [label="age <= 38.5\nentropy = 0.305\nsamples = 55\nvalue = [52, 3]\nclass = No"] ;
18 -> 24 ;
25 [label="entropy = 0.0\nsamples = 28\nvalue = [28, 0]\nclass = No"] ;
24 -> 25 ;
26 [label="age <= 39.5\nentropy = 0.503\nsamples = 27\nvalue = [24, 3]\nclass = No"] ;
24 -> 26 ;
27 [label="entropy = 1.0\nsamples = 4\nvalue = [2, 2]\nclass = No"] ;
26 -> 27 ;
28 [label="threat_level <= 0.5\nentropy = 0.258\nsamples = 23\nvalue = [22, 1]\nclass = No"] ;
26 -> 28 ;
29 [label="entropy = 0.0\nsamples = 19\nvalue = [19, 0]\nclass = No"] ;
28 -> 29 ;
30 [label="age <= 43.5\nentropy = 0.811\nsamples = 4\nvalue = [3, 1]\nclass = No"] ;
28 -> 30 ;
31 [label="entropy = 0.0\nsamples = 2\nvalue = [2, 0]\nclass = No"] ;
30 -> 31 ;
32 [label="age <= 47.5\nentropy = 1.0\nsamples = 2\nvalue = [1, 1]\nclass = No"] ;
30 -> 32 ;
33 [label="entropy = 0.0\nsamples = 1\nvalue = [0, 1]\nclass = Yes"] ;
32 -> 33 ;
34 [label="entropy = 0.0\nsamples = 1\nvalue = [1, 0]\nclass = No"] ;
32 -> 34 ;
35 [label="race <= 1.5\nentropy = 1.0\nsamples = 2\nvalue = [1, 1]\nclass = No"] ;
5 -> 35 ;
36 [label="entropy = 0.0\nsamples = 1\nvalue = [1, 0]\nclass = No"] ;
35 -> 36 ;
37 [label="entropy = 0.0\nsamples = 1\nvalue = [0, 1]\nclass = Yes"] ;
35 -> 37 ;
38 [label="age <= 28.5\nentropy = 0.881\nsamples = 10\nvalue = [7, 3]\nclass = No"] ;
4 -> 38 ;
39 [label="age <= 20.0\nentropy = 0.985\nsamples = 7\nvalue = [4, 3]\nclass = No"] ;
38 -> 39 ;
40 [label="entropy = 0.0\nsamples = 2\nvalue = [2, 0]\nclass = No"] ;
39 -> 40 ;
41 [label="age <= 22.5\nentropy = 0.971\nsamples = 5\nvalue = [2, 3]\nclass = Yes"] ;
39 -> 41 ;
42 [label="entropy = 0.0\nsamples = 2\nvalue = [0, 2]\nclass = Yes"] ;
41 -> 42 ;
43 [label="age <= 25.5\nentropy = 0.918\nsamples = 3\nvalue = [2, 1]\nclass = No"] ;
41 -> 43 ;
44 [label="entropy = 0.0\nsamples = 2\nvalue = [2, 0]\nclass = No"] ;
43 -> 44 ;
45 [label="entropy = 0.0\nsamples = 1\nvalue = [0, 1]\nclass = Yes"] ;
43 -> 45 ;
46 [label="entropy = 0.0\nsamples = 3\nvalue = [3, 0]\nclass = No"] ;
38 -> 46 ;
47 [label="gender <= 0.5\nentropy = 0.194\nsamples = 167\nvalue = [162, 5]\nclass = No"] ;
3 -> 47 ;
48 [label="threat_level <= 1.0\nentropy = 1.0\nsamples = 2\nvalue = [1, 1]\nclass = No"] ;
47 -> 48 ;
49 [label="entropy = 0.0\nsamples = 1\nvalue = [1, 0]\nclass = No"] ;
48 -> 49 ;
50 [label="entropy = 0.0\nsamples = 1\nvalue = [0, 1]\nclass = Yes"] ;
48 -> 50 ;
51 [label="manner_of_death <= 0.5\nentropy = 0.165\nsamples = 165\nvalue = [161, 4]\nclass = No"] ;
47 -> 51 ;
52 [label="age <= 24.5\nentropy = 0.133\nsamples = 162\nvalue = [159, 3]\nclass = No"] ;
51 -> 52 ;
53 [label="entropy = 0.0\nsamples = 59\nvalue = [59, 0]\nclass = No"] ;
52 -> 53 ;
54 [label="age <= 35.5\nentropy = 0.19\nsamples = 103\nvalue = [100, 3]\nclass = No"] ;
52 -> 54 ;
55 [label="age <= 34.5\nentropy = 0.253\nsamples = 71\nvalue = [68, 3]\nclass = No"] ;
54 -> 55 ;
56 [label="age <= 28.5\nentropy = 0.194\nsamples = 67\nvalue = [65, 2]\nclass = No"] ;
55 -> 56 ;
57 [label="body_camera <= 0.5\nentropy = 0.381\nsamples = 27\nvalue = [25, 2]\nclass = No"] ;
56 -> 57 ;
58 [label="age <= 27.5\nentropy = 0.25\nsamples = 24\nvalue = [23, 1]\nclass = No"] ;
57 -> 58 ;
59 [label="entropy = 0.0\nsamples = 18\nvalue = [18, 0]\nclass = No"] ;
58 -> 59 ;
60 [label="threat_level <= 0.5\nentropy = 0.65\nsamples = 6\nvalue = [5, 1]\nclass = No"] ;
58 -> 60 ;
61 [label="entropy = 0.918\nsamples = 3\nvalue = [2, 1]\nclass = No"] ;
60 -> 61 ;
62 [label="entropy = 0.0\nsamples = 3\nvalue = [3, 0]\nclass = No"] ;
60 -> 62 ;
63 [label="threat_level <= 0.5\nentropy = 0.918\nsamples = 3\nvalue = [2, 1]\nclass = No"] ;
57 -> 63 ;
64 [label="entropy = 0.0\nsamples = 1\nvalue = [0, 1]\nclass = Yes"] ;
63 -> 64 ;
65 [label="entropy = 0.0\nsamples = 2\nvalue = [2, 0]\nclass = No"] ;
63 -> 65 ;
66 [label="entropy = 0.0\nsamples = 40\nvalue = [40, 0]\nclass = No"] ;
56 -> 66 ;
67 [label="threat_level <= 0.5\nentropy = 0.811\nsamples = 4\nvalue = [3, 1]\nclass = No"] ;
55 -> 67 ;
68 [label="body_camera <= 0.5\nentropy = 0.918\nsamples = 3\nvalue = [2, 1]\nclass = No"] ;
67 -> 68 ;
69 [label="entropy = 1.0\nsamples = 2\nvalue = [1, 1]\nclass = No"] ;
68 -> 69 ;
70 [label="entropy = 0.0\nsamples = 1\nvalue = [1, 0]\nclass = No"] ;
68 -> 70 ;
71 [label="entropy = 0.0\nsamples = 1\nvalue = [1, 0]\nclass = No"] ;
67 -> 71 ;
72 [label="entropy = 0.0\nsamples = 32\nvalue = [32, 0]\nclass = No"] ;
54 -> 72 ;
73 [label="race <= 1.5\nentropy = 0.918\nsamples = 3\nvalue = [2, 1]\nclass = No"] ;
51 -> 73 ;
74 [label="entropy = 0.0\nsamples = 1\nvalue = [0, 1]\nclass = Yes"] ;
73 -> 74 ;
75 [label="entropy = 0.0\nsamples = 2\nvalue = [2, 0]\nclass = No"] ;
73 -> 75 ;
76 [label="flee <= 0.5\nentropy = 0.51\nsamples = 159\nvalue = [141, 18]\nclass = No"] ;
2 -> 76 ;
77 [label="age <= 29.5\nentropy = 0.233\nsamples = 79\nvalue = [76, 3]\nclass = No"] ;
76 -> 77 ;
78 [label="entropy = 0.0\nsamples = 45\nvalue = [45, 0]\nclass = No"] ;
77 -> 78 ;
79 [label="age <= 32.5\nentropy = 0.431\nsamples = 34\nvalue = [31, 3]\nclass = No"] ;
77 -> 79 ;
80 [label="armed <= 42.0\nentropy = 1.0\nsamples = 4\nvalue = [2, 2]\nclass = No"] ;
79 -> 80 ;
81 [label="entropy = 0.0\nsamples = 1\nvalue = [0, 1]\nclass = Yes"] ;
80 -> 81 ;
82 [label="armed <= 77.0\nentropy = 0.918\nsamples = 3\nvalue = [2, 1]\nclass = No"] ;
80 -> 82 ;
83 [label="entropy = 0.0\nsamples = 2\nvalue = [2, 0]\nclass = No"] ;
82 -> 83 ;
84 [label="entropy = 0.0\nsamples = 1\nvalue = [0, 1]\nclass = Yes"] ;
82 -> 84 ;
85 [label="armed <= 74.0\nentropy = 0.211\nsamples = 30\nvalue = [29, 1]\nclass = No"] ;
79 -> 85 ;
86 [label="armed <= 58.0\nentropy = 0.439\nsamples = 11\nvalue = [10, 1]\nclass = No"] ;
85 -> 86 ;
87 [label="entropy = 0.0\nsamples = 10\nvalue = [10, 0]\nclass = No"] ;
86 -> 87 ;
88 [label="entropy = 0.0\nsamples = 1\nvalue = [0, 1]\nclass = Yes"] ;
86 -> 88 ;
89 [label="entropy = 0.0\nsamples = 19\nvalue = [19, 0]\nclass = No"] ;
85 -> 89 ;
90 [label="age <= 21.5\nentropy = 0.696\nsamples = 80\nvalue = [65, 15]\nclass = No"] ;
76 -> 90 ;
91 [label="threat_level <= 0.5\nentropy = 0.276\nsamples = 21\nvalue = [20, 1]\nclass = No"] ;
90 -> 91 ;
92 [label="race <= 1.5\nentropy = 0.469\nsamples = 10\nvalue = [9, 1]\nclass = No"] ;
91 -> 92 ;
93 [label="armed <= 74.5\nentropy = 0.722\nsamples = 5\nvalue = [4, 1]\nclass = No"] ;
92 -> 93 ;
94 [label="entropy = 0.0\nsamples = 1\nvalue = [1, 0]\nclass = No"] ;
93 -> 94 ;
95 [label="age <= 18.0\nentropy = 0.811\nsamples = 4\nvalue = [3, 1]\nclass = No"] ;
93 -> 95 ;
96 [label="entropy = 0.0\nsamples = 1\nvalue = [1, 0]\nclass = No"] ;
95 -> 96 ;
97 [label="age <= 19.5\nentropy = 0.918\nsamples = 3\nvalue = [2, 1]\nclass = No"] ;
95 -> 97 ;
98 [label="entropy = 1.0\nsamples = 2\nvalue = [1, 1]\nclass = No"] ;
97 -> 98 ;
99 [label="entropy = 0.0\nsamples = 1\nvalue = [1, 0]\nclass = No"] ;
97 -> 99 ;
100 [label="entropy = 0.0\nsamples = 5\nvalue = [5, 0]\nclass = No"] ;
92 -> 100 ;
101 [label="entropy = 0.0\nsamples = 11\nvalue = [11, 0]\nclass = No"] ;
91 -> 101 ;
102 [label="armed <= 43.0\nentropy = 0.791\nsamples = 59\nvalue = [45, 14]\nclass = No"] ;
90 -> 102 ;
103 [label="body_camera <= 0.5\nentropy = 0.977\nsamples = 17\nvalue = [10, 7]\nclass = No"] ;
102 -> 103 ;
104 [label="age <= 26.5\nentropy = 0.996\nsamples = 13\nvalue = [6, 7]\nclass = Yes"] ;
103 -> 104 ;
105 [label="entropy = 0.0\nsamples = 2\nvalue = [0, 2]\nclass = Yes"] ;
104 -> 105 ;
106 [label="age <= 46.0\nentropy = 0.994\nsamples = 11\nvalue = [6, 5]\nclass = No"] ;
104 -> 106 ;
107 [label="age <= 35.5\nentropy = 0.918\nsamples = 9\nvalue = [6, 3]\nclass = No"] ;
106 -> 107 ;
108 [label="race <= 0.5\nentropy = 1.0\nsamples = 4\nvalue = [2, 2]\nclass = No"] ;
107 -> 108 ;
109 [label="entropy = 0.0\nsamples = 1\nvalue = [1, 0]\nclass = No"] ;
108 -> 109 ;
110 [label="race <= 1.5\nentropy = 0.918\nsamples = 3\nvalue = [1, 2]\nclass = Yes"] ;
108 -> 110 ;
111 [label="threat_level <= 0.5\nentropy = 1.0\nsamples = 2\nvalue = [1, 1]\nclass = No"] ;
110 -> 111 ;
112 [label="entropy = 0.0\nsamples = 1\nvalue = [1, 0]\nclass = No"] ;
111 -> 112 ;
113 [label="entropy = 0.0\nsamples = 1\nvalue = [0, 1]\nclass = Yes"] ;
111 -> 113 ;
114 [label="entropy = 0.0\nsamples = 1\nvalue = [0, 1]\nclass = Yes"] ;
110 -> 114 ;
115 [label="race <= 1.5\nentropy = 0.722\nsamples = 5\nvalue = [4, 1]\nclass = No"] ;
107 -> 115 ;
116 [label="threat_level <= 0.5\nentropy = 0.918\nsamples = 3\nvalue = [2, 1]\nclass = No"] ;
115 -> 116 ;
117 [label="entropy = 0.0\nsamples = 2\nvalue = [2, 0]\nclass = No"] ;
116 -> 117 ;
118 [label="entropy = 0.0\nsamples = 1\nvalue = [0, 1]\nclass = Yes"] ;
116 -> 118 ;
119 [label="entropy = 0.0\nsamples = 2\nvalue = [2, 0]\nclass = No"] ;
115 -> 119 ;
120 [label="entropy = 0.0\nsamples = 2\nvalue = [0, 2]\nclass = Yes"] ;
106 -> 120 ;
121 [label="entropy = 0.0\nsamples = 4\nvalue = [4, 0]\nclass = No"] ;
103 -> 121 ;
122 [label="age <= 39.5\nentropy = 0.65\nsamples = 42\nvalue = [35, 7]\nclass = No"] ;
102 -> 122 ;
123 [label="age <= 38.5\nentropy = 0.7\nsamples = 37\nvalue = [30, 7]\nclass = No"] ;
122 -> 123 ;
124 [label="threat_level <= 1.5\nentropy = 0.65\nsamples = 36\nvalue = [30, 6]\nclass = No"] ;
123 -> 124 ;
125 [label="age <= 35.5\nentropy = 0.709\nsamples = 31\nvalue = [25, 6]\nclass = No"] ;
124 -> 125 ;
126 [label="age <= 33.5\nentropy = 0.779\nsamples = 26\nvalue = [20, 6]\nclass = No"] ;
125 -> 126 ;
127 [label="threat_level <= 0.5\nentropy = 0.629\nsamples = 19\nvalue = [16, 3]\nclass = No"] ;
126 -> 127 ;
128 [label="race <= 1.5\nentropy = 0.811\nsamples = 12\nvalue = [9, 3]\nclass = No"] ;
127 -> 128 ;
129 [label="age <= 30.5\nentropy = 0.954\nsamples = 8\nvalue = [5, 3]\nclass = No"] ;
128 -> 129 ;
130 [label="age <= 22.5\nentropy = 0.971\nsamples = 5\nvalue = [2, 3]\nclass = Yes"] ;
129 -> 130 ;
131 [label="entropy = 0.0\nsamples = 1\nvalue = [0, 1]\nclass = Yes"] ;
130 -> 131 ;
132 [label="age <= 27.0\nentropy = 1.0\nsamples = 4\nvalue = [2, 2]\nclass = No"] ;
130 -> 132 ;
133 [label="armed <= 74.5\nentropy = 0.918\nsamples = 3\nvalue = [2, 1]\nclass = No"] ;
132 -> 133 ;
134 [label="age <= 23.5\nentropy = 1.0\nsamples = 2\nvalue = [1, 1]\nclass = No"] ;
133 -> 134 ;
135 [label="entropy = 0.0\nsamples = 1\nvalue = [0, 1]\nclass = Yes"] ;
134 -> 135 ;
136 [label="entropy = 0.0\nsamples = 1\nvalue = [1, 0]\nclass = No"] ;
134 -> 136 ;
137 [label="entropy = 0.0\nsamples = 1\nvalue = [1, 0]\nclass = No"] ;
133 -> 137 ;
138 [label="entropy = 0.0\nsamples = 1\nvalue = [0, 1]\nclass = Yes"] ;
132 -> 138 ;
139 [label="entropy = 0.0\nsamples = 3\nvalue = [3, 0]\nclass = No"] ;
129 -> 139 ;
140 [label="entropy = 0.0\nsamples = 4\nvalue = [4, 0]\nclass = No"] ;
128 -> 140 ;
141 [label="entropy = 0.0\nsamples = 7\nvalue = [7, 0]\nclass = No"] ;
127 -> 141 ;
142 [label="body_camera <= 0.5\nentropy = 0.985\nsamples = 7\nvalue = [4, 3]\nclass = No"] ;
126 -> 142 ;
143 [label="race <= 1.5\nentropy = 0.918\nsamples = 6\nvalue = [4, 2]\nclass = No"] ;
142 -> 143 ;
144 [label="entropy = 0.0\nsamples = 3\nvalue = [3, 0]\nclass = No"] ;
143 -> 144 ;
145 [label="armed <= 74.5\nentropy = 0.918\nsamples = 3\nvalue = [1, 2]\nclass = Yes"] ;
143 -> 145 ;
146 [label="entropy = 0.0\nsamples = 1\nvalue = [1, 0]\nclass = No"] ;
145 -> 146 ;
147 [label="entropy = 0.0\nsamples = 2\nvalue = [0, 2]\nclass = Yes"] ;
145 -> 147 ;
148 [label="entropy = 0.0\nsamples = 1\nvalue = [0, 1]\nclass = Yes"] ;
142 -> 148 ;
149 [label="entropy = 0.0\nsamples = 5\nvalue = [5, 0]\nclass = No"] ;
125 -> 149 ;
150 [label="entropy = 0.0\nsamples = 5\nvalue = [5, 0]\nclass = No"] ;
124 -> 150 ;
151 [label="entropy = 0.0\nsamples = 1\nvalue = [0, 1]\nclass = Yes"] ;
123 -> 151 ;
152 [label="entropy = 0.0\nsamples = 5\nvalue = [5, 0]\nclass = No"] ;
122 -> 152 ;
153 [label="armed <= 13.0\nentropy = 0.599\nsamples = 377\nvalue = [322, 55]\nclass = No"] ;
1 -> 153 ;
154 [label="entropy = 0.0\nsamples = 2\nvalue = [0, 2]\nclass = Yes"] ;
153 -> 154 ;
155 [label="armed <= 74.5\nentropy = 0.588\nsamples = 375\nvalue = [322, 53]\nclass = No"] ;
153 -> 155 ;
156 [label="age <= 17.5\nentropy = 0.634\nsamples = 300\nvalue = [252, 48]\nclass = No"] ;
155 -> 156 ;
157 [label="entropy = 0.0\nsamples = 3\nvalue = [0, 3]\nclass = Yes"] ;
156 -> 157 ;
158 [label="armed <= 73.5\nentropy = 0.614\nsamples = 297\nvalue = [252, 45]\nclass = No"] ;
156 -> 158 ;
159 [label="age <= 58.5\nentropy = 0.576\nsamples = 285\nvalue = [246, 39]\nclass = No"] ;
158 -> 159 ;
160 [label="age <= 55.5\nentropy = 0.59\nsamples = 274\nvalue = [235, 39]\nclass = No"] ;
159 -> 160 ;
161 [label="age <= 50.5\nentropy = 0.569\nsamples = 268\nvalue = [232, 36]\nclass = No"] ;
160 -> 161 ;
162 [label="age <= 19.5\nentropy = 0.59\nsamples = 253\nvalue = [217, 36]\nclass = No"] ;
161 -> 162 ;
163 [label="entropy = 0.0\nsamples = 9\nvalue = [9, 0]\nclass = No"] ;
162 -> 163 ;
164 [label="age <= 21.5\nentropy = 0.604\nsamples = 244\nvalue = [208, 36]\nclass = No"] ;
162 -> 164 ;
165 [label="race <= 4.0\nentropy = 0.985\nsamples = 7\nvalue = [3, 4]\nclass = Yes"] ;
164 -> 165 ;
166 [label="entropy = 0.0\nsamples = 1\nvalue = [0, 1]\nclass = Yes"] ;
165 -> 166 ;
167 [label="age <= 20.5\nentropy = 1.0\nsamples = 6\nvalue = [3, 3]\nclass = No"] ;
165 -> 167 ;
168 [label="body_camera <= 0.5\nentropy = 1.0\nsamples = 2\nvalue = [1, 1]\nclass = No"] ;
167 -> 168 ;
169 [label="entropy = 0.0\nsamples = 1\nvalue = [0, 1]\nclass = Yes"] ;
168 -> 169 ;
170 [label="entropy = 0.0\nsamples = 1\nvalue = [1, 0]\nclass = No"] ;
168 -> 170 ;
171 [label="body_camera <= 0.5\nentropy = 1.0\nsamples = 4\nvalue = [2, 2]\nclass = No"] ;
167 -> 171 ;
172 [label="threat_level <= 0.5\nentropy = 0.918\nsamples = 3\nvalue = [2, 1]\nclass = No"] ;
171 -> 172 ;
173 [label="entropy = 0.0\nsamples = 2\nvalue = [2, 0]\nclass = No"] ;
172 -> 173 ;
174 [label="entropy = 0.0\nsamples = 1\nvalue = [0, 1]\nclass = Yes"] ;
172 -> 174 ;
175 [label="entropy = 0.0\nsamples = 1\nvalue = [0, 1]\nclass = Yes"] ;
171 -> 175 ;
176 [label="body_camera <= 0.5\nentropy = 0.571\nsamples = 237\nvalue = [205, 32]\nclass = No"] ;
164 -> 176 ;
177 [label="age <= 48.5\nentropy = 0.6\nsamples = 219\nvalue = [187, 32]\nclass = No"] ;
176 -> 177 ;
178 [label="age <= 37.5\nentropy = 0.585\nsamples = 214\nvalue = [184, 30]\nclass = No"] ;
177 -> 178 ;
179 [label="age <= 28.5\nentropy = 0.65\nsamples = 150\nvalue = [125, 25]\nclass = No"] ;
178 -> 179 ;
180 [label="threat_level <= 0.5\nentropy = 0.463\nsamples = 51\nvalue = [46, 5]\nclass = No"] ;
179 -> 180 ;
181 [label="flee <= 0.5\nentropy = 0.562\nsamples = 38\nvalue = [33, 5]\nclass = No"] ;
180 -> 181 ;
182 [label="age <= 25.5\nentropy = 0.787\nsamples = 17\nvalue = [13, 4]\nclass = No"] ;
181 -> 182 ;
183 [label="gender <= 0.5\nentropy = 0.918\nsamples = 12\nvalue = [8, 4]\nclass = No"] ;
182 -> 183 ;
184 [label="entropy = 0.0\nsamples = 1\nvalue = [0, 1]\nclass = Yes"] ;
183 -> 184 ;
185 [label="age <= 24.5\nentropy = 0.845\nsamples = 11\nvalue = [8, 3]\nclass = No"] ;
183 -> 185 ;
186 [label="age <= 23.5\nentropy = 0.544\nsamples = 8\nvalue = [7, 1]\nclass = No"] ;
185 -> 186 ;
187 [label="age <= 22.5\nentropy = 0.722\nsamples = 5\nvalue = [4, 1]\nclass = No"] ;
186 -> 187 ;
188 [label="entropy = 0.0\nsamples = 1\nvalue = [1, 0]\nclass = No"] ;
187 -> 188 ;
189 [label="entropy = 0.811\nsamples = 4\nvalue = [3, 1]\nclass = No"] ;
187 -> 189 ;
190 [label="entropy = 0.0\nsamples = 3\nvalue = [3, 0]\nclass = No"] ;
186 -> 190 ;
191 [label="entropy = 0.918\nsamples = 3\nvalue = [1, 2]\nclass = Yes"] ;
185 -> 191 ;
192 [label="entropy = 0.0\nsamples = 5\nvalue = [5, 0]\nclass = No"] ;
182 -> 192 ;
193 [label="age <= 26.5\nentropy = 0.276\nsamples = 21\nvalue = [20, 1]\nclass = No"] ;
181 -> 193 ;
194 [label="entropy = 0.0\nsamples = 13\nvalue = [13, 0]\nclass = No"] ;
193 -> 194 ;
195 [label="age <= 27.5\nentropy = 0.544\nsamples = 8\nvalue = [7, 1]\nclass = No"] ;
193 -> 195 ;
196 [label="race <= 4.0\nentropy = 0.811\nsamples = 4\nvalue = [3, 1]\nclass = No"] ;
195 -> 196 ;
197 [label="entropy = 0.0\nsamples = 1\nvalue = [1, 0]\nclass = No"] ;
196 -> 197 ;
198 [label="entropy = 0.918\nsamples = 3\nvalue = [2, 1]\nclass = No"] ;
196 -> 198 ;
199 [label="entropy = 0.0\nsamples = 4\nvalue = [4, 0]\nclass = No"] ;
195 -> 199 ;
200 [label="entropy = 0.0\nsamples = 13\nvalue = [13, 0]\nclass = No"] ;
180 -> 200 ;
201 [label="armed <= 44.5\nentropy = 0.726\nsamples = 99\nvalue = [79, 20]\nclass = No"] ;
179 -> 201 ;
202 [label="age <= 29.5\nentropy = 0.742\nsamples = 95\nvalue = [75, 20]\nclass = No"] ;
201 -> 202 ;
203 [label="armed <= 37.5\nentropy = 0.946\nsamples = 11\nvalue = [7, 4]\nclass = No"] ;
202 -> 203 ;
204 [label="armed <= 32.0\nentropy = 0.881\nsamples = 10\nvalue = [7, 3]\nclass = No"] ;
203 -> 204 ;
205 [label="flee <= 0.5\nentropy = 0.918\nsamples = 9\nvalue = [6, 3]\nclass = No"] ;
204 -> 205 ;
206 [label="threat_level <= 0.5\nentropy = 1.0\nsamples = 4\nvalue = [2, 2]\nclass = No"] ;
205 -> 206 ;
207 [label="entropy = 0.918\nsamples = 3\nvalue = [2, 1]\nclass = No"] ;
206 -> 207 ;
208 [label="entropy = 0.0\nsamples = 1\nvalue = [0, 1]\nclass = Yes"] ;
206 -> 208 ;
209 [label="threat_level <= 0.5\nentropy = 0.722\nsamples = 5\nvalue = [4, 1]\nclass = No"] ;
205 -> 209 ;
210 [label="entropy = 0.811\nsamples = 4\nvalue = [3, 1]\nclass = No"] ;
209 -> 210 ;
211 [label="entropy = 0.0\nsamples = 1\nvalue = [1, 0]\nclass = No"] ;
209 -> 211 ;
212 [label="entropy = 0.0\nsamples = 1\nvalue = [1, 0]\nclass = No"] ;
204 -> 212 ;
213 [label="entropy = 0.0\nsamples = 1\nvalue = [0, 1]\nclass = Yes"] ;
203 -> 213 ;
214 [label="age <= 35.5\nentropy = 0.702\nsamples = 84\nvalue = [68, 16]\nclass = No"] ;
202 -> 214 ;
215 [label="armed <= 35.5\nentropy = 0.639\nsamples = 68\nvalue = [57, 11]\nclass = No"] ;
214 -> 215 ;
216 [label="race <= 4.5\nentropy = 0.681\nsamples = 61\nvalue = [50, 11]\nclass = No"] ;
215 -> 216 ;
217 [label="entropy = 0.0\nsamples = 5\nvalue = [5, 0]\nclass = No"] ;
216 -> 217 ;
218 [label="age <= 34.5\nentropy = 0.715\nsamples = 56\nvalue = [45, 11]\nclass = No"] ;
216 -> 218 ;
219 [label="gender <= 0.5\nentropy = 0.782\nsamples = 43\nvalue = [33, 10]\nclass = No"] ;
218 -> 219 ;
220 [label="entropy = 0.0\nsamples = 3\nvalue = [3, 0]\nclass = No"] ;
219 -> 220 ;
221 [label="manner_of_death <= 0.5\nentropy = 0.811\nsamples = 40\nvalue = [30, 10]\nclass = No"] ;
219 -> 221 ;
222 [label="age <= 33.5\nentropy = 0.831\nsamples = 38\nvalue = [28, 10]\nclass = No"] ;
221 -> 222 ;
223 [label="flee <= 0.5\nentropy = 0.797\nsamples = 29\nvalue = [22, 7]\nclass = No"] ;
222 -> 223 ;
224 [label="age <= 31.5\nentropy = 0.65\nsamples = 18\nvalue = [15, 3]\nclass = No"] ;
223 -> 224 ;
225 [label="age <= 30.5\nentropy = 0.469\nsamples = 10\nvalue = [9, 1]\nclass = No"] ;
224 -> 225 ;
226 [label="threat_level <= 0.5\nentropy = 0.592\nsamples = 7\nvalue = [6, 1]\nclass = No"] ;
225 -> 226 ;
227 [label="entropy = 0.65\nsamples = 6\nvalue = [5, 1]\nclass = No"] ;
226 -> 227 ;
228 [label="entropy = 0.0\nsamples = 1\nvalue = [1, 0]\nclass = No"] ;
226 -> 228 ;
229 [label="entropy = 0.0\nsamples = 3\nvalue = [3, 0]\nclass = No"] ;
225 -> 229 ;
230 [label="threat_level <= 0.5\nentropy = 0.811\nsamples = 8\nvalue = [6, 2]\nclass = No"] ;
224 -> 230 ;
231 [label="age <= 32.5\nentropy = 0.65\nsamples = 6\nvalue = [5, 1]\nclass = No"] ;
230 -> 231 ;
232 [label="entropy = 0.918\nsamples = 3\nvalue = [2, 1]\nclass = No"] ;
231 -> 232 ;
233 [label="entropy = 0.0\nsamples = 3\nvalue = [3, 0]\nclass = No"] ;
231 -> 233 ;
234 [label="entropy = 1.0\nsamples = 2\nvalue = [1, 1]\nclass = No"] ;
230 -> 234 ;
235 [label="age <= 31.5\nentropy = 0.946\nsamples = 11\nvalue = [7, 4]\nclass = No"] ;
223 -> 235 ;
236 [label="age <= 30.5\nentropy = 1.0\nsamples = 6\nvalue = [3, 3]\nclass = No"] ;
235 -> 236 ;
237 [label="threat_level <= 0.5\nentropy = 1.0\nsamples = 4\nvalue = [2, 2]\nclass = No"] ;
236 -> 237 ;
238 [label="entropy = 1.0\nsamples = 2\nvalue = [1, 1]\nclass = No"] ;
237 -> 238 ;
239 [label="entropy = 1.0\nsamples = 2\nvalue = [1, 1]\nclass = No"] ;
237 -> 239 ;
240 [label="entropy = 1.0\nsamples = 2\nvalue = [1, 1]\nclass = No"] ;
236 -> 240 ;
241 [label="age <= 32.5\nentropy = 0.722\nsamples = 5\nvalue = [4, 1]\nclass = No"] ;
235 -> 241 ;
242 [label="entropy = 0.0\nsamples = 2\nvalue = [2, 0]\nclass = No"] ;
241 -> 242 ;
243 [label="entropy = 0.918\nsamples = 3\nvalue = [2, 1]\nclass = No"] ;
241 -> 243 ;
244 [label="flee <= 0.5\nentropy = 0.918\nsamples = 9\nvalue = [6, 3]\nclass = No"] ;
222 -> 244 ;
245 [label="threat_level <= 0.5\nentropy = 0.985\nsamples = 7\nvalue = [4, 3]\nclass = No"] ;
244 -> 245 ;
246 [label="entropy = 1.0\nsamples = 4\nvalue = [2, 2]\nclass = No"] ;
245 -> 246 ;
247 [label="entropy = 0.918\nsamples = 3\nvalue = [2, 1]\nclass = No"] ;
245 -> 247 ;
248 [label="entropy = 0.0\nsamples = 2\nvalue = [2, 0]\nclass = No"] ;
244 -> 248 ;
249 [label="entropy = 0.0\nsamples = 2\nvalue = [2, 0]\nclass = No"] ;
221 -> 249 ;
250 [label="flee <= 0.5\nentropy = 0.391\nsamples = 13\nvalue = [12, 1]\nclass = No"] ;
218 -> 250 ;
251 [label="entropy = 0.503\nsamples = 9\nvalue = [8, 1]\nclass = No"] ;
250 -> 251 ;
252 [label="entropy = 0.0\nsamples = 4\nvalue = [4, 0]\nclass = No"] ;
250 -> 252 ;
253 [label="entropy = 0.0\nsamples = 7\nvalue = [7, 0]\nclass = No"] ;
215 -> 253 ;
254 [label="armed <= 35.5\nentropy = 0.896\nsamples = 16\nvalue = [11, 5]\nclass = No"] ;
214 -> 254 ;
255 [label="race <= 3.5\nentropy = 0.75\nsamples = 14\nvalue = [11, 3]\nclass = No"] ;
254 -> 255 ;
256 [label="entropy = 0.0\nsamples = 1\nvalue = [0, 1]\nclass = Yes"] ;
255 -> 256 ;
257 [label="age <= 36.5\nentropy = 0.619\nsamples = 13\nvalue = [11, 2]\nclass = No"] ;
255 -> 257 ;
258 [label="entropy = 0.0\nsamples = 6\nvalue = [6, 0]\nclass = No"] ;
257 -> 258 ;
259 [label="gender <= 0.5\nentropy = 0.863\nsamples = 7\nvalue = [5, 2]\nclass = No"] ;
257 -> 259 ;
260 [label="entropy = 0.0\nsamples = 2\nvalue = [2, 0]\nclass = No"] ;
259 -> 260 ;
261 [label="flee <= 0.5\nentropy = 0.971\nsamples = 5\nvalue = [3, 2]\nclass = No"] ;
259 -> 261 ;
262 [label="entropy = 0.918\nsamples = 3\nvalue = [1, 2]\nclass = Yes"] ;
261 -> 262 ;
263 [label="entropy = 0.0\nsamples = 2\nvalue = [2, 0]\nclass = No"] ;
261 -> 263 ;
264 [label="entropy = 0.0\nsamples = 2\nvalue = [0, 2]\nclass = Yes"] ;
254 -> 264 ;
265 [label="entropy = 0.0\nsamples = 4\nvalue = [4, 0]\nclass = No"] ;
201 -> 265 ;
266 [label="age <= 43.5\nentropy = 0.396\nsamples = 64\nvalue = [59, 5]\nclass = No"] ;
178 -> 266 ;
267 [label="entropy = 0.0\nsamples = 36\nvalue = [36, 0]\nclass = No"] ;
266 -> 267 ;
268 [label="armed <= 35.5\nentropy = 0.677\nsamples = 28\nvalue = [23, 5]\nclass = No"] ;
266 -> 268 ;
269 [label="flee <= 0.5\nentropy = 0.529\nsamples = 25\nvalue = [22, 3]\nclass = No"] ;
268 -> 269 ;
270 [label="age <= 47.5\nentropy = 0.65\nsamples = 18\nvalue = [15, 3]\nclass = No"] ;
269 -> 270 ;
271 [label="gender <= 0.5\nentropy = 0.779\nsamples = 13\nvalue = [10, 3]\nclass = No"] ;
270 -> 271 ;
272 [label="entropy = 0.0\nsamples = 1\nvalue = [0, 1]\nclass = Yes"] ;
271 -> 272 ;
273 [label="age <= 46.5\nentropy = 0.65\nsamples = 12\nvalue = [10, 2]\nclass = No"] ;
271 -> 273 ;
274 [label="age <= 45.5\nentropy = 0.439\nsamples = 11\nvalue = [10, 1]\nclass = No"] ;
273 -> 274 ;
275 [label="age <= 44.5\nentropy = 0.592\nsamples = 7\nvalue = [6, 1]\nclass = No"] ;
274 -> 275 ;
276 [label="entropy = 0.0\nsamples = 3\nvalue = [3, 0]\nclass = No"] ;
275 -> 276 ;
277 [label="entropy = 0.811\nsamples = 4\nvalue = [3, 1]\nclass = No"] ;
275 -> 277 ;
278 [label="entropy = 0.0\nsamples = 4\nvalue = [4, 0]\nclass = No"] ;
274 -> 278 ;
279 [label="entropy = 0.0\nsamples = 1\nvalue = [0, 1]\nclass = Yes"] ;
273 -> 279 ;
280 [label="entropy = 0.0\nsamples = 5\nvalue = [5, 0]\nclass = No"] ;
270 -> 280 ;
281 [label="entropy = 0.0\nsamples = 7\nvalue = [7, 0]\nclass = No"] ;
269 -> 281 ;
282 [label="threat_level <= 0.5\nentropy = 0.918\nsamples = 3\nvalue = [1, 2]\nclass = Yes"] ;
268 -> 282 ;
283 [label="entropy = 0.0\nsamples = 1\nvalue = [1, 0]\nclass = No"] ;
282 -> 283 ;
284 [label="entropy = 0.0\nsamples = 2\nvalue = [0, 2]\nclass = Yes"] ;
282 -> 284 ;
285 [label="gender <= 0.5\nentropy = 0.971\nsamples = 5\nvalue = [3, 2]\nclass = No"] ;
177 -> 285 ;
286 [label="entropy = 0.0\nsamples = 1\nvalue = [0, 1]\nclass = Yes"] ;
285 -> 286 ;
287 [label="threat_level <= 0.5\nentropy = 0.811\nsamples = 4\nvalue = [3, 1]\nclass = No"] ;
285 -> 287 ;
288 [label="age <= 49.5\nentropy = 0.918\nsamples = 3\nvalue = [2, 1]\nclass = No"] ;
287 -> 288 ;
289 [label="entropy = 1.0\nsamples = 2\nvalue = [1, 1]\nclass = No"] ;
288 -> 289 ;
290 [label="entropy = 0.0\nsamples = 1\nvalue = [1, 0]\nclass = No"] ;
288 -> 290 ;
291 [label="entropy = 0.0\nsamples = 1\nvalue = [1, 0]\nclass = No"] ;
287 -> 291 ;
292 [label="entropy = 0.0\nsamples = 18\nvalue = [18, 0]\nclass = No"] ;
176 -> 292 ;
293 [label="entropy = 0.0\nsamples = 15\nvalue = [15, 0]\nclass = No"] ;
161 -> 293 ;
294 [label="body_camera <= 0.5\nentropy = 1.0\nsamples = 6\nvalue = [3, 3]\nclass = No"] ;
160 -> 294 ;
295 [label="threat_level <= 0.5\nentropy = 0.971\nsamples = 5\nvalue = [3, 2]\nclass = No"] ;
294 -> 295 ;
296 [label="armed <= 35.5\nentropy = 0.918\nsamples = 3\nvalue = [1, 2]\nclass = Yes"] ;
295 -> 296 ;
297 [label="entropy = 0.0\nsamples = 2\nvalue = [0, 2]\nclass = Yes"] ;
296 -> 297 ;
298 [label="entropy = 0.0\nsamples = 1\nvalue = [1, 0]\nclass = No"] ;
296 -> 298 ;
299 [label="entropy = 0.0\nsamples = 2\nvalue = [2, 0]\nclass = No"] ;
295 -> 299 ;
300 [label="entropy = 0.0\nsamples = 1\nvalue = [0, 1]\nclass = Yes"] ;
294 -> 300 ;
301 [label="entropy = 0.0\nsamples = 11\nvalue = [11, 0]\nclass = No"] ;
159 -> 301 ;
302 [label="age <= 47.5\nentropy = 1.0\nsamples = 12\nvalue = [6, 6]\nclass = No"] ;
158 -> 302 ;
303 [label="age <= 31.5\nentropy = 0.971\nsamples = 10\nvalue = [4, 6]\nclass = Yes"] ;
302 -> 303 ;
304 [label="age <= 23.0\nentropy = 0.811\nsamples = 4\nvalue = [3, 1]\nclass = No"] ;
303 -> 304 ;
305 [label="entropy = 0.0\nsamples = 1\nvalue = [0, 1]\nclass = Yes"] ;
304 -> 305 ;
306 [label="entropy = 0.0\nsamples = 3\nvalue = [3, 0]\nclass = No"] ;
304 -> 306 ;
307 [label="age <= 41.5\nentropy = 0.65\nsamples = 6\nvalue = [1, 5]\nclass = Yes"] ;
303 -> 307 ;
308 [label="entropy = 0.0\nsamples = 2\nvalue = [0, 2]\nclass = Yes"] ;
307 -> 308 ;
309 [label="body_camera <= 0.5\nentropy = 0.811\nsamples = 4\nvalue = [1, 3]\nclass = Yes"] ;
307 -> 309 ;
310 [label="flee <= 0.5\nentropy = 0.918\nsamples = 3\nvalue = [1, 2]\nclass = Yes"] ;
309 -> 310 ;
311 [label="entropy = 0.0\nsamples = 1\nvalue = [0, 1]\nclass = Yes"] ;
310 -> 311 ;
312 [label="entropy = 1.0\nsamples = 2\nvalue = [1, 1]\nclass = No"] ;
310 -> 312 ;
313 [label="entropy = 0.0\nsamples = 1\nvalue = [0, 1]\nclass = Yes"] ;
309 -> 313 ;
314 [label="entropy = 0.0\nsamples = 2\nvalue = [2, 0]\nclass = No"] ;
302 -> 314 ;
315 [label="armed <= 79.0\nentropy = 0.353\nsamples = 75\nvalue = [70, 5]\nclass = No"] ;
155 -> 315 ;
316 [label="age <= 37.5\nentropy = 0.303\nsamples = 74\nvalue = [70, 4]\nclass = No"] ;
315 -> 316 ;
317 [label="age <= 32.5\nentropy = 0.386\nsamples = 53\nvalue = [49, 4]\nclass = No"] ;
316 -> 317 ;
318 [label="flee <= 0.5\nentropy = 0.156\nsamples = 44\nvalue = [43, 1]\nclass = No"] ;
317 -> 318 ;
319 [label="entropy = 0.0\nsamples = 27\nvalue = [27, 0]\nclass = No"] ;
318 -> 319 ;
320 [label="threat_level <= 0.5\nentropy = 0.323\nsamples = 17\nvalue = [16, 1]\nclass = No"] ;
318 -> 320 ;
321 [label="entropy = 0.0\nsamples = 9\nvalue = [9, 0]\nclass = No"] ;
320 -> 321 ;
322 [label="armed <= 75.5\nentropy = 0.544\nsamples = 8\nvalue = [7, 1]\nclass = No"] ;
320 -> 322 ;
323 [label="age <= 27.0\nentropy = 0.811\nsamples = 4\nvalue = [3, 1]\nclass = No"] ;
322 -> 323 ;
324 [label="age <= 22.5\nentropy = 1.0\nsamples = 2\nvalue = [1, 1]\nclass = No"] ;
323 -> 324 ;
325 [label="entropy = 0.0\nsamples = 1\nvalue = [1, 0]\nclass = No"] ;
324 -> 325 ;
326 [label="entropy = 0.0\nsamples = 1\nvalue = [0, 1]\nclass = Yes"] ;
324 -> 326 ;
327 [label="entropy = 0.0\nsamples = 2\nvalue = [2, 0]\nclass = No"] ;
323 -> 327 ;
328 [label="entropy = 0.0\nsamples = 4\nvalue = [4, 0]\nclass = No"] ;
322 -> 328 ;
329 [label="flee <= 0.5\nentropy = 0.918\nsamples = 9\nvalue = [6, 3]\nclass = No"] ;
317 -> 329 ;
330 [label="gender <= 0.5\nentropy = 0.592\nsamples = 7\nvalue = [6, 1]\nclass = No"] ;
329 -> 330 ;
331 [label="entropy = 0.0\nsamples = 1\nvalue = [0, 1]\nclass = Yes"] ;
330 -> 331 ;
332 [label="entropy = 0.0\nsamples = 6\nvalue = [6, 0]\nclass = No"] ;
330 -> 332 ;
333 [label="entropy = 0.0\nsamples = 2\nvalue = [0, 2]\nclass = Yes"] ;
329 -> 333 ;
334 [label="entropy = 0.0\nsamples = 21\nvalue = [21, 0]\nclass = No"] ;
316 -> 334 ;
335 [label="entropy = 0.0\nsamples = 1\nvalue = [0, 1]\nclass = Yes"] ;
315 -> 335 ;
336 [label="race <= 3.5\nentropy = 0.886\nsamples = 2113\nvalue = [1471, 642]\nclass = No"] ;
0 -> 336 [labeldistance=2.5, labelangle=-45, headlabel="False"] ;
337 [label="armed <= 33.5\nentropy = 0.778\nsamples = 960\nvalue = [739, 221]\nclass = No"] ;
336 -> 337 ;
338 [label="armed <= 9.5\nentropy = 0.661\nsamples = 542\nvalue = [449, 93]\nclass = No"] ;
337 -> 338 ;
339 [label="armed <= 2.0\nentropy = 0.998\nsamples = 19\nvalue = [9, 10]\nclass = Yes"] ;
338 -> 339 ;
340 [label="age <= 29.5\nentropy = 0.65\nsamples = 6\nvalue = [5, 1]\nclass = No"] ;
339 -> 340 ;
341 [label="threat_level <= 0.5\nentropy = 1.0\nsamples = 2\nvalue = [1, 1]\nclass = No"] ;
340 -> 341 ;
342 [label="entropy = 0.0\nsamples = 1\nvalue = [1, 0]\nclass = No"] ;
341 -> 342 ;
343 [label="entropy = 0.0\nsamples = 1\nvalue = [0, 1]\nclass = Yes"] ;
341 -> 343 ;
344 [label="entropy = 0.0\nsamples = 4\nvalue = [4, 0]\nclass = No"] ;
340 -> 344 ;
345 [label="age <= 46.5\nentropy = 0.89\nsamples = 13\nvalue = [4, 9]\nclass = Yes"] ;
339 -> 345 ;
346 [label="age <= 28.0\nentropy = 0.991\nsamples = 9\nvalue = [4, 5]\nclass = Yes"] ;
345 -> 346 ;
347 [label="entropy = 0.0\nsamples = 3\nvalue = [0, 3]\nclass = Yes"] ;
346 -> 347 ;
348 [label="race <= 1.5\nentropy = 0.918\nsamples = 6\nvalue = [4, 2]\nclass = No"] ;
346 -> 348 ;
349 [label="entropy = 0.0\nsamples = 2\nvalue = [2, 0]\nclass = No"] ;
348 -> 349 ;
350 [label="threat_level <= 0.5\nentropy = 1.0\nsamples = 4\nvalue = [2, 2]\nclass = No"] ;
348 -> 350 ;
351 [label="entropy = 0.0\nsamples = 2\nvalue = [0, 2]\nclass = Yes"] ;
350 -> 351 ;
352 [label="entropy = 0.0\nsamples = 2\nvalue = [2, 0]\nclass = No"] ;
350 -> 352 ;
353 [label="entropy = 0.0\nsamples = 4\nvalue = [0, 4]\nclass = Yes"] ;
345 -> 353 ;
354 [label="age <= 22.5\nentropy = 0.631\nsamples = 523\nvalue = [440, 83]\nclass = No"] ;
338 -> 354 ;
355 [label="race <= 1.5\nentropy = 0.414\nsamples = 72\nvalue = [66, 6]\nclass = No"] ;
354 -> 355 ;
356 [label="age <= 19.5\nentropy = 0.159\nsamples = 43\nvalue = [42, 1]\nclass = No"] ;
355 -> 356 ;
357 [label="entropy = 0.0\nsamples = 21\nvalue = [21, 0]\nclass = No"] ;
356 -> 357 ;
358 [label="age <= 20.5\nentropy = 0.267\nsamples = 22\nvalue = [21, 1]\nclass = No"] ;
356 -> 358 ;
359 [label="entropy = 0.811\nsamples = 4\nvalue = [3, 1]\nclass = No"] ;
358 -> 359 ;
360 [label="entropy = 0.0\nsamples = 18\nvalue = [18, 0]\nclass = No"] ;
358 -> 360 ;
361 [label="threat_level <= 1.5\nentropy = 0.663\nsamples = 29\nvalue = [24, 5]\nclass = No"] ;
355 -> 361 ;
362 [label="flee <= 2.5\nentropy = 0.592\nsamples = 28\nvalue = [24, 4]\nclass = No"] ;
361 -> 362 ;
363 [label="threat_level <= 0.5\nentropy = 0.634\nsamples = 25\nvalue = [21, 4]\nclass = No"] ;
362 -> 363 ;
364 [label="age <= 17.5\nentropy = 0.485\nsamples = 19\nvalue = [17, 2]\nclass = No"] ;
363 -> 364 ;
365 [label="entropy = 0.0\nsamples = 1\nvalue = [0, 1]\nclass = Yes"] ;
364 -> 365 ;
366 [label="age <= 21.5\nentropy = 0.31\nsamples = 18\nvalue = [17, 1]\nclass = No"] ;
364 -> 366 ;
367 [label="entropy = 0.0\nsamples = 12\nvalue = [12, 0]\nclass = No"] ;
366 -> 367 ;
368 [label="body_camera <= 0.5\nentropy = 0.65\nsamples = 6\nvalue = [5, 1]\nclass = No"] ;
366 -> 368 ;
369 [label="entropy = 0.811\nsamples = 4\nvalue = [3, 1]\nclass = No"] ;
368 -> 369 ;
370 [label="entropy = 0.0\nsamples = 2\nvalue = [2, 0]\nclass = No"] ;
368 -> 370 ;
371 [label="age <= 20.5\nentropy = 0.918\nsamples = 6\nvalue = [4, 2]\nclass = No"] ;
363 -> 371 ;
372 [label="armed <= 27.0\nentropy = 1.0\nsamples = 4\nvalue = [2, 2]\nclass = No"] ;
371 -> 372 ;
373 [label="entropy = 0.0\nsamples = 1\nvalue = [1, 0]\nclass = No"] ;
372 -> 373 ;
374 [label="age <= 19.0\nentropy = 0.918\nsamples = 3\nvalue = [1, 2]\nclass = Yes"] ;
372 -> 374 ;
375 [label="entropy = 1.0\nsamples = 2\nvalue = [1, 1]\nclass = No"] ;
374 -> 375 ;
376 [label="entropy = 0.0\nsamples = 1\nvalue = [0, 1]\nclass = Yes"] ;
374 -> 376 ;
377 [label="entropy = 0.0\nsamples = 2\nvalue = [2, 0]\nclass = No"] ;
371 -> 377 ;
378 [label="entropy = 0.0\nsamples = 3\nvalue = [3, 0]\nclass = No"] ;
362 -> 378 ;
379 [label="entropy = 0.0\nsamples = 1\nvalue = [0, 1]\nclass = Yes"] ;
361 -> 379 ;
380 [label="age <= 68.5\nentropy = 0.659\nsamples = 451\nvalue = [374, 77]\nclass = No"] ;
354 -> 380 ;
381 [label="armed <= 18.5\nentropy = 0.652\nsamples = 448\nvalue = [373, 75]\nclass = No"] ;
380 -> 381 ;
382 [label="entropy = 0.0\nsamples = 5\nvalue = [5, 0]\nclass = No"] ;
381 -> 382 ;
383 [label="armed <= 25.0\nentropy = 0.656\nsamples = 443\nvalue = [368, 75]\nclass = No"] ;
381 -> 383 ;
384 [label="age <= 26.5\nentropy = 0.918\nsamples = 3\nvalue = [1, 2]\nclass = Yes"] ;
383 -> 384 ;
385 [label="entropy = 0.0\nsamples = 2\nvalue = [0, 2]\nclass = Yes"] ;
384 -> 385 ;
386 [label="entropy = 0.0\nsamples = 1\nvalue = [1, 0]\nclass = No"] ;
384 -> 386 ;
387 [label="age <= 28.5\nentropy = 0.648\nsamples = 440\nvalue = [367, 73]\nclass = No"] ;
383 -> 387 ;
388 [label="race <= 1.5\nentropy = 0.54\nsamples = 113\nvalue = [99, 14]\nclass = No"] ;
387 -> 388 ;
389 [label="threat_level <= 1.5\nentropy = 0.383\nsamples = 67\nvalue = [62, 5]\nclass = No"] ;
388 -> 389 ;
390 [label="age <= 26.5\nentropy = 0.33\nsamples = 66\nvalue = [62, 4]\nclass = No"] ;
389 -> 390 ;
391 [label="body_camera <= 0.5\nentropy = 0.386\nsamples = 53\nvalue = [49, 4]\nclass = No"] ;
390 -> 391 ;
392 [label="gender <= 0.5\nentropy = 0.433\nsamples = 45\nvalue = [41, 4]\nclass = No"] ;
391 -> 392 ;
393 [label="entropy = 0.0\nsamples = 4\nvalue = [4, 0]\nclass = No"] ;
392 -> 393 ;
394 [label="age <= 23.5\nentropy = 0.461\nsamples = 41\nvalue = [37, 4]\nclass = No"] ;
392 -> 394 ;
395 [label="threat_level <= 0.5\nentropy = 0.619\nsamples = 13\nvalue = [11, 2]\nclass = No"] ;
394 -> 395 ;
396 [label="flee <= 2.5\nentropy = 0.469\nsamples = 10\nvalue = [9, 1]\nclass = No"] ;
395 -> 396 ;
397 [label="entropy = 0.503\nsamples = 9\nvalue = [8, 1]\nclass = No"] ;
396 -> 397 ;
398 [label="entropy = 0.0\nsamples = 1\nvalue = [1, 0]\nclass = No"] ;
396 -> 398 ;
399 [label="flee <= 2.5\nentropy = 0.918\nsamples = 3\nvalue = [2, 1]\nclass = No"] ;
395 -> 399 ;
400 [label="entropy = 1.0\nsamples = 2\nvalue = [1, 1]\nclass = No"] ;
399 -> 400 ;
401 [label="entropy = 0.0\nsamples = 1\nvalue = [1, 0]\nclass = No"] ;
399 -> 401 ;
402 [label="age <= 24.5\nentropy = 0.371\nsamples = 28\nvalue = [26, 2]\nclass = No"] ;
394 -> 402 ;
403 [label="entropy = 0.0\nsamples = 11\nvalue = [11, 0]\nclass = No"] ;
402 -> 403 ;
404 [label="threat_level <= 0.5\nentropy = 0.523\nsamples = 17\nvalue = [15, 2]\nclass = No"] ;
402 -> 404 ;
405 [label="age <= 25.5\nentropy = 0.592\nsamples = 14\nvalue = [12, 2]\nclass = No"] ;
404 -> 405 ;
406 [label="entropy = 0.469\nsamples = 10\nvalue = [9, 1]\nclass = No"] ;
405 -> 406 ;
407 [label="entropy = 0.811\nsamples = 4\nvalue = [3, 1]\nclass = No"] ;
405 -> 407 ;
408 [label="entropy = 0.0\nsamples = 3\nvalue = [3, 0]\nclass = No"] ;
404 -> 408 ;
409 [label="entropy = 0.0\nsamples = 8\nvalue = [8, 0]\nclass = No"] ;
391 -> 409 ;
410 [label="entropy = 0.0\nsamples = 13\nvalue = [13, 0]\nclass = No"] ;
390 -> 410 ;
411 [label="entropy = 0.0\nsamples = 1\nvalue = [0, 1]\nclass = Yes"] ;
389 -> 411 ;
412 [label="gender <= 0.5\nentropy = 0.713\nsamples = 46\nvalue = [37, 9]\nclass = No"] ;
388 -> 412 ;
413 [label="entropy = 0.0\nsamples = 1\nvalue = [0, 1]\nclass = Yes"] ;
412 -> 413 ;
414 [label="age <= 25.5\nentropy = 0.675\nsamples = 45\nvalue = [37, 8]\nclass = No"] ;
412 -> 414 ;
415 [label="threat_level <= 0.5\nentropy = 0.828\nsamples = 23\nvalue = [17, 6]\nclass = No"] ;
414 -> 415 ;
416 [label="age <= 23.5\nentropy = 0.863\nsamples = 21\nvalue = [15, 6]\nclass = No"] ;
415 -> 416 ;
417 [label="flee <= 2.5\nentropy = 0.592\nsamples = 7\nvalue = [6, 1]\nclass = No"] ;
416 -> 417 ;
418 [label="entropy = 0.0\nsamples = 5\nvalue = [5, 0]\nclass = No"] ;
417 -> 418 ;
419 [label="entropy = 1.0\nsamples = 2\nvalue = [1, 1]\nclass = No"] ;
417 -> 419 ;
420 [label="age <= 24.5\nentropy = 0.94\nsamples = 14\nvalue = [9, 5]\nclass = No"] ;
416 -> 420 ;
421 [label="entropy = 1.0\nsamples = 4\nvalue = [2, 2]\nclass = No"] ;
420 -> 421 ;
422 [label="body_camera <= 0.5\nentropy = 0.881\nsamples = 10\nvalue = [7, 3]\nclass = No"] ;
420 -> 422 ;
423 [label="entropy = 0.863\nsamples = 7\nvalue = [5, 2]\nclass = No"] ;
422 -> 423 ;
424 [label="entropy = 0.918\nsamples = 3\nvalue = [2, 1]\nclass = No"] ;
422 -> 424 ;
425 [label="entropy = 0.0\nsamples = 2\nvalue = [2, 0]\nclass = No"] ;
415 -> 425 ;
426 [label="age <= 26.5\nentropy = 0.439\nsamples = 22\nvalue = [20, 2]\nclass = No"] ;
414 -> 426 ;
427 [label="entropy = 0.0\nsamples = 5\nvalue = [5, 0]\nclass = No"] ;
426 -> 427 ;
428 [label="threat_level <= 0.5\nentropy = 0.523\nsamples = 17\nvalue = [15, 2]\nclass = No"] ;
426 -> 428 ;
429 [label="flee <= 2.5\nentropy = 0.592\nsamples = 14\nvalue = [12, 2]\nclass = No"] ;
428 -> 429 ;
430 [label="body_camera <= 0.5\nentropy = 0.619\nsamples = 13\nvalue = [11, 2]\nclass = No"] ;
429 -> 430 ;
431 [label="race <= 2.5\nentropy = 0.65\nsamples = 12\nvalue = [10, 2]\nclass = No"] ;
430 -> 431 ;
432 [label="age <= 27.5\nentropy = 0.684\nsamples = 11\nvalue = [9, 2]\nclass = No"] ;
431 -> 432 ;
433 [label="entropy = 0.65\nsamples = 6\nvalue = [5, 1]\nclass = No"] ;
432 -> 433 ;
434 [label="entropy = 0.722\nsamples = 5\nvalue = [4, 1]\nclass = No"] ;
432 -> 434 ;
435 [label="entropy = 0.0\nsamples = 1\nvalue = [1, 0]\nclass = No"] ;
431 -> 435 ;
436 [label="entropy = 0.0\nsamples = 1\nvalue = [1, 0]\nclass = No"] ;
430 -> 436 ;
437 [label="entropy = 0.0\nsamples = 1\nvalue = [1, 0]\nclass = No"] ;
429 -> 437 ;
438 [label="entropy = 0.0\nsamples = 3\nvalue = [3, 0]\nclass = No"] ;
428 -> 438 ;
439 [label="age <= 31.5\nentropy = 0.681\nsamples = 327\nvalue = [268, 59]\nclass = No"] ;
387 -> 439 ;
440 [label="flee <= 2.5\nentropy = 0.784\nsamples = 60\nvalue = [46, 14]\nclass = No"] ;
439 -> 440 ;
441 [label="manner_of_death <= 0.5\nentropy = 0.811\nsamples = 56\nvalue = [42, 14]\nclass = No"] ;
440 -> 441 ;
442 [label="body_camera <= 0.5\nentropy = 0.826\nsamples = 54\nvalue = [40, 14]\nclass = No"] ;
441 -> 442 ;
443 [label="race <= 1.5\nentropy = 0.785\nsamples = 47\nvalue = [36, 11]\nclass = No"] ;
442 -> 443 ;
444 [label="threat_level <= 1.5\nentropy = 0.845\nsamples = 33\nvalue = [24, 9]\nclass = No"] ;
443 -> 444 ;
445 [label="race <= 0.5\nentropy = 0.857\nsamples = 32\nvalue = [23, 9]\nclass = No"] ;
444 -> 445 ;
446 [label="entropy = 0.0\nsamples = 1\nvalue = [1, 0]\nclass = No"] ;
445 -> 446 ;
447 [label="threat_level <= 0.5\nentropy = 0.869\nsamples = 31\nvalue = [22, 9]\nclass = No"] ;
445 -> 447 ;
448 [label="age <= 30.5\nentropy = 0.863\nsamples = 28\nvalue = [20, 8]\nclass = No"] ;
447 -> 448 ;
449 [label="age <= 29.5\nentropy = 0.918\nsamples = 18\nvalue = [12, 6]\nclass = No"] ;
448 -> 449 ;
450 [label="entropy = 0.954\nsamples = 8\nvalue = [5, 3]\nclass = No"] ;
449 -> 450 ;
451 [label="entropy = 0.881\nsamples = 10\nvalue = [7, 3]\nclass = No"] ;
449 -> 451 ;
452 [label="entropy = 0.722\nsamples = 10\nvalue = [8, 2]\nclass = No"] ;
448 -> 452 ;
453 [label="age <= 30.0\nentropy = 0.918\nsamples = 3\nvalue = [2, 1]\nclass = No"] ;
447 -> 453 ;
454 [label="entropy = 0.0\nsamples = 2\nvalue = [2, 0]\nclass = No"] ;
453 -> 454 ;
455 [label="entropy = 0.0\nsamples = 1\nvalue = [0, 1]\nclass = Yes"] ;
453 -> 455 ;
456 [label="entropy = 0.0\nsamples = 1\nvalue = [1, 0]\nclass = No"] ;
444 -> 456 ;
457 [label="threat_level <= 0.5\nentropy = 0.592\nsamples = 14\nvalue = [12, 2]\nclass = No"] ;
443 -> 457 ;
458 [label="race <= 2.5\nentropy = 0.684\nsamples = 11\nvalue = [9, 2]\nclass = No"] ;
457 -> 458 ;
459 [label="age <= 30.5\nentropy = 0.722\nsamples = 10\nvalue = [8, 2]\nclass = No"] ;
458 -> 459 ;
460 [label="age <= 29.5\nentropy = 0.592\nsamples = 7\nvalue = [6, 1]\nclass = No"] ;
459 -> 460 ;
461 [label="entropy = 0.722\nsamples = 5\nvalue = [4, 1]\nclass = No"] ;
460 -> 461 ;
462 [label="entropy = 0.0\nsamples = 2\nvalue = [2, 0]\nclass = No"] ;
460 -> 462 ;
463 [label="entropy = 0.918\nsamples = 3\nvalue = [2, 1]\nclass = No"] ;
459 -> 463 ;
464 [label="entropy = 0.0\nsamples = 1\nvalue = [1, 0]\nclass = No"] ;
458 -> 464 ;
465 [label="entropy = 0.0\nsamples = 3\nvalue = [3, 0]\nclass = No"] ;
457 -> 465 ;
466 [label="race <= 2.5\nentropy = 0.985\nsamples = 7\nvalue = [4, 3]\nclass = No"] ;
442 -> 466 ;
467 [label="threat_level <= 1.5\nentropy = 0.918\nsamples = 6\nvalue = [4, 2]\nclass = No"] ;
466 -> 467 ;
468 [label="age <= 29.5\nentropy = 0.722\nsamples = 5\nvalue = [4, 1]\nclass = No"] ;
467 -> 468 ;
469 [label="entropy = 1.0\nsamples = 2\nvalue = [1, 1]\nclass = No"] ;
468 -> 469 ;
470 [label="entropy = 0.0\nsamples = 3\nvalue = [3, 0]\nclass = No"] ;
468 -> 470 ;
471 [label="entropy = 0.0\nsamples = 1\nvalue = [0, 1]\nclass = Yes"] ;
467 -> 471 ;
472 [label="entropy = 0.0\nsamples = 1\nvalue = [0, 1]\nclass = Yes"] ;
466 -> 472 ;
473 [label="entropy = 0.0\nsamples = 2\nvalue = [2, 0]\nclass = No"] ;
441 -> 473 ;
474 [label="entropy = 0.0\nsamples = 4\nvalue = [4, 0]\nclass = No"] ;
440 -> 474 ;
475 [label="race <= 2.5\nentropy = 0.654\nsamples = 267\nvalue = [222, 45]\nclass = No"] ;
439 -> 475 ;
476 [label="gender <= 0.5\nentropy = 0.669\nsamples = 257\nvalue = [212, 45]\nclass = No"] ;
475 -> 476 ;
477 [label="age <= 32.5\nentropy = 0.985\nsamples = 7\nvalue = [4, 3]\nclass = No"] ;
476 -> 477 ;
478 [label="entropy = 0.0\nsamples = 2\nvalue = [0, 2]\nclass = Yes"] ;
477 -> 478 ;
479 [label="age <= 51.5\nentropy = 0.722\nsamples = 5\nvalue = [4, 1]\nclass = No"] ;
477 -> 479 ;
480 [label="entropy = 0.0\nsamples = 4\nvalue = [4, 0]\nclass = No"] ;
479 -> 480 ;
481 [label="entropy = 0.0\nsamples = 1\nvalue = [0, 1]\nclass = Yes"] ;
479 -> 481 ;
482 [label="race <= 1.5\nentropy = 0.653\nsamples = 250\nvalue = [208, 42]\nclass = No"] ;
476 -> 482 ;
483 [label="flee <= 2.5\nentropy = 0.584\nsamples = 150\nvalue = [129, 21]\nclass = No"] ;
482 -> 483 ;
484 [label="body_camera <= 0.5\nentropy = 0.605\nsamples = 142\nvalue = [121, 21]\nclass = No"] ;
483 -> 484 ;
485 [label="age <= 36.5\nentropy = 0.56\nsamples = 130\nvalue = [113, 17]\nclass = No"] ;
484 -> 485 ;
486 [label="age <= 34.5\nentropy = 0.286\nsamples = 40\nvalue = [38, 2]\nclass = No"] ;
485 -> 486 ;
487 [label="age <= 33.5\nentropy = 0.362\nsamples = 29\nvalue = [27, 2]\nclass = No"] ;
486 -> 487 ;
488 [label="age <= 32.5\nentropy = 0.242\nsamples = 25\nvalue = [24, 1]\nclass = No"] ;
487 -> 488 ;
489 [label="manner_of_death <= 0.5\nentropy = 0.439\nsamples = 11\nvalue = [10, 1]\nclass = No"] ;
488 -> 489 ;
490 [label="entropy = 0.544\nsamples = 8\nvalue = [7, 1]\nclass = No"] ;
489 -> 490 ;
491 [label="entropy = 0.0\nsamples = 3\nvalue = [3, 0]\nclass = No"] ;
489 -> 491 ;
492 [label="entropy = 0.0\nsamples = 14\nvalue = [14, 0]\nclass = No"] ;
488 -> 492 ;
493 [label="race <= 0.5\nentropy = 0.811\nsamples = 4\nvalue = [3, 1]\nclass = No"] ;
487 -> 493 ;
494 [label="entropy = 0.0\nsamples = 1\nvalue = [1, 0]\nclass = No"] ;
493 -> 494 ;
495 [label="entropy = 0.918\nsamples = 3\nvalue = [2, 1]\nclass = No"] ;
493 -> 495 ;
496 [label="entropy = 0.0\nsamples = 11\nvalue = [11, 0]\nclass = No"] ;
486 -> 496 ;
497 [label="threat_level <= 0.5\nentropy = 0.65\nsamples = 90\nvalue = [75, 15]\nclass = No"] ;
485 -> 497 ;
498 [label="race <= 0.5\nentropy = 0.682\nsamples = 83\nvalue = [68, 15]\nclass = No"] ;
497 -> 498 ;
499 [label="age <= 41.5\nentropy = 0.985\nsamples = 7\nvalue = [4, 3]\nclass = No"] ;
498 -> 499 ;
500 [label="entropy = 0.0\nsamples = 2\nvalue = [2, 0]\nclass = No"] ;
499 -> 500 ;
501 [label="age <= 43.0\nentropy = 0.971\nsamples = 5\nvalue = [2, 3]\nclass = Yes"] ;
499 -> 501 ;
502 [label="entropy = 0.0\nsamples = 1\nvalue = [0, 1]\nclass = Yes"] ;
501 -> 502 ;
503 [label="age <= 48.5\nentropy = 1.0\nsamples = 4\nvalue = [2, 2]\nclass = No"] ;
501 -> 503 ;
504 [label="entropy = 0.0\nsamples = 1\nvalue = [1, 0]\nclass = No"] ;
503 -> 504 ;
505 [label="entropy = 0.918\nsamples = 3\nvalue = [1, 2]\nclass = Yes"] ;
503 -> 505 ;
506 [label="age <= 38.5\nentropy = 0.629\nsamples = 76\nvalue = [64, 12]\nclass = No"] ;
498 -> 506 ;
507 [label="age <= 37.5\nentropy = 0.863\nsamples = 14\nvalue = [10, 4]\nclass = No"] ;
506 -> 507 ;
508 [label="entropy = 0.65\nsamples = 6\nvalue = [5, 1]\nclass = No"] ;
507 -> 508 ;
509 [label="entropy = 0.954\nsamples = 8\nvalue = [5, 3]\nclass = No"] ;
507 -> 509 ;
510 [label="age <= 41.5\nentropy = 0.555\nsamples = 62\nvalue = [54, 8]\nclass = No"] ;
506 -> 510 ;
511 [label="entropy = 0.0\nsamples = 15\nvalue = [15, 0]\nclass = No"] ;
510 -> 511 ;
512 [label="age <= 43.5\nentropy = 0.658\nsamples = 47\nvalue = [39, 8]\nclass = No"] ;
510 -> 512 ;
513 [label="age <= 42.5\nentropy = 1.0\nsamples = 6\nvalue = [3, 3]\nclass = No"] ;
512 -> 513 ;
514 [label="entropy = 1.0\nsamples = 2\nvalue = [1, 1]\nclass = No"] ;
513 -> 514 ;
515 [label="entropy = 1.0\nsamples = 4\nvalue = [2, 2]\nclass = No"] ;
513 -> 515 ;
516 [label="age <= 53.5\nentropy = 0.535\nsamples = 41\nvalue = [36, 5]\nclass = No"] ;
512 -> 516 ;
517 [label="age <= 52.5\nentropy = 0.634\nsamples = 25\nvalue = [21, 4]\nclass = No"] ;
516 -> 517 ;
518 [label="age <= 50.5\nentropy = 0.426\nsamples = 23\nvalue = [21, 2]\nclass = No"] ;
517 -> 518 ;
519 [label="age <= 49.5\nentropy = 0.485\nsamples = 19\nvalue = [17, 2]\nclass = No"] ;
518 -> 519 ;
520 [label="age <= 47.0\nentropy = 0.353\nsamples = 15\nvalue = [14, 1]\nclass = No"] ;
519 -> 520 ;
521 [label="age <= 45.5\nentropy = 0.65\nsamples = 6\nvalue = [5, 1]\nclass = No"] ;
520 -> 521 ;
522 [label="entropy = 0.0\nsamples = 3\nvalue = [3, 0]\nclass = No"] ;
521 -> 522 ;
523 [label="entropy = 0.918\nsamples = 3\nvalue = [2, 1]\nclass = No"] ;
521 -> 523 ;
524 [label="entropy = 0.0\nsamples = 9\nvalue = [9, 0]\nclass = No"] ;
520 -> 524 ;
525 [label="entropy = 0.811\nsamples = 4\nvalue = [3, 1]\nclass = No"] ;
519 -> 525 ;
526 [label="entropy = 0.0\nsamples = 4\nvalue = [4, 0]\nclass = No"] ;
518 -> 526 ;
527 [label="entropy = 0.0\nsamples = 2\nvalue = [0, 2]\nclass = Yes"] ;
517 -> 527 ;
528 [label="age <= 65.0\nentropy = 0.337\nsamples = 16\nvalue = [15, 1]\nclass = No"] ;
516 -> 528 ;
529 [label="entropy = 0.0\nsamples = 11\nvalue = [11, 0]\nclass = No"] ;
528 -> 529 ;
530 [label="age <= 67.5\nentropy = 0.722\nsamples = 5\nvalue = [4, 1]\nclass = No"] ;
528 -> 530 ;
531 [label="entropy = 1.0\nsamples = 2\nvalue = [1, 1]\nclass = No"] ;
530 -> 531 ;
532 [label="entropy = 0.0\nsamples = 3\nvalue = [3, 0]\nclass = No"] ;
530 -> 532 ;
533 [label="entropy = 0.0\nsamples = 7\nvalue = [7, 0]\nclass = No"] ;
497 -> 533 ;
534 [label="age <= 32.5\nentropy = 0.918\nsamples = 12\nvalue = [8, 4]\nclass = No"] ;
484 -> 534 ;
535 [label="entropy = 0.0\nsamples = 2\nvalue = [2, 0]\nclass = No"] ;
534 -> 535 ;
536 [label="age <= 48.5\nentropy = 0.971\nsamples = 10\nvalue = [6, 4]\nclass = No"] ;
534 -> 536 ;
537 [label="age <= 47.0\nentropy = 1.0\nsamples = 8\nvalue = [4, 4]\nclass = No"] ;
536 -> 537 ;
538 [label="age <= 43.5\nentropy = 0.985\nsamples = 7\nvalue = [4, 3]\nclass = No"] ;
537 -> 538 ;
539 [label="age <= 40.0\nentropy = 1.0\nsamples = 6\nvalue = [3, 3]\nclass = No"] ;
538 -> 539 ;
540 [label="age <= 36.5\nentropy = 0.971\nsamples = 5\nvalue = [3, 2]\nclass = No"] ;
539 -> 540 ;
541 [label="age <= 33.5\nentropy = 1.0\nsamples = 4\nvalue = [2, 2]\nclass = No"] ;
540 -> 541 ;
542 [label="entropy = 1.0\nsamples = 2\nvalue = [1, 1]\nclass = No"] ;
541 -> 542 ;
543 [label="entropy = 1.0\nsamples = 2\nvalue = [1, 1]\nclass = No"] ;
541 -> 543 ;
544 [label="entropy = 0.0\nsamples = 1\nvalue = [1, 0]\nclass = No"] ;
540 -> 544 ;
545 [label="entropy = 0.0\nsamples = 1\nvalue = [0, 1]\nclass = Yes"] ;
539 -> 545 ;
546 [label="entropy = 0.0\nsamples = 1\nvalue = [1, 0]\nclass = No"] ;
538 -> 546 ;
547 [label="entropy = 0.0\nsamples = 1\nvalue = [0, 1]\nclass = Yes"] ;
537 -> 547 ;
548 [label="entropy = 0.0\nsamples = 2\nvalue = [2, 0]\nclass = No"] ;
536 -> 548 ;
549 [label="entropy = 0.0\nsamples = 8\nvalue = [8, 0]\nclass = No"] ;
483 -> 549 ;
550 [label="manner_of_death <= 0.5\nentropy = 0.741\nsamples = 100\nvalue = [79, 21]\nclass = No"] ;
482 -> 550 ;
551 [label="age <= 63.5\nentropy = 0.71\nsamples = 98\nvalue = [79, 19]\nclass = No"] ;
550 -> 551 ;
552 [label="age <= 47.5\nentropy = 0.692\nsamples = 97\nvalue = [79, 18]\nclass = No"] ;
551 -> 552 ;
553 [label="age <= 46.5\nentropy = 0.731\nsamples = 83\nvalue = [66, 17]\nclass = No"] ;
552 -> 553 ;
554 [label="age <= 33.5\nentropy = 0.717\nsamples = 81\nvalue = [65, 16]\nclass = No"] ;
553 -> 554 ;
555 [label="threat_level <= 0.5\nentropy = 0.845\nsamples = 22\nvalue = [16, 6]\nclass = No"] ;
554 -> 555 ;
556 [label="body_camera <= 0.5\nentropy = 0.954\nsamples = 16\nvalue = [10, 6]\nclass = No"] ;
555 -> 556 ;
557 [label="flee <= 2.5\nentropy = 1.0\nsamples = 12\nvalue = [6, 6]\nclass = No"] ;
556 -> 557 ;
558 [label="age <= 32.5\nentropy = 0.994\nsamples = 11\nvalue = [5, 6]\nclass = Yes"] ;
557 -> 558 ;
559 [label="entropy = 0.918\nsamples = 3\nvalue = [2, 1]\nclass = No"] ;
558 -> 559 ;
560 [label="entropy = 0.954\nsamples = 8\nvalue = [3, 5]\nclass = Yes"] ;
558 -> 560 ;
561 [label="entropy = 0.0\nsamples = 1\nvalue = [1, 0]\nclass = No"] ;
557 -> 561 ;
562 [label="entropy = 0.0\nsamples = 4\nvalue = [4, 0]\nclass = No"] ;
556 -> 562 ;
563 [label="entropy = 0.0\nsamples = 6\nvalue = [6, 0]\nclass = No"] ;
555 -> 563 ;
564 [label="flee <= 2.5\nentropy = 0.657\nsamples = 59\nvalue = [49, 10]\nclass = No"] ;
554 -> 564 ;
565 [label="age <= 35.5\nentropy = 0.577\nsamples = 51\nvalue = [44, 7]\nclass = No"] ;
564 -> 565 ;
566 [label="entropy = 0.0\nsamples = 11\nvalue = [11, 0]\nclass = No"] ;
565 -> 566 ;
567 [label="threat_level <= 0.5\nentropy = 0.669\nsamples = 40\nvalue = [33, 7]\nclass = No"] ;
565 -> 567 ;
568 [label="age <= 40.5\nentropy = 0.581\nsamples = 36\nvalue = [31, 5]\nclass = No"] ;
567 -> 568 ;
569 [label="body_camera <= 0.5\nentropy = 0.792\nsamples = 21\nvalue = [16, 5]\nclass = No"] ;
568 -> 569 ;
570 [label="age <= 36.5\nentropy = 0.852\nsamples = 18\nvalue = [13, 5]\nclass = No"] ;
569 -> 570 ;
571 [label="entropy = 0.971\nsamples = 5\nvalue = [3, 2]\nclass = No"] ;
570 -> 571 ;
572 [label="age <= 37.5\nentropy = 0.779\nsamples = 13\nvalue = [10, 3]\nclass = No"] ;
570 -> 572 ;
573 [label="entropy = 0.0\nsamples = 2\nvalue = [2, 0]\nclass = No"] ;
572 -> 573 ;
574 [label="age <= 39.5\nentropy = 0.845\nsamples = 11\nvalue = [8, 3]\nclass = No"] ;
572 -> 574 ;
575 [label="age <= 38.5\nentropy = 0.918\nsamples = 6\nvalue = [4, 2]\nclass = No"] ;
574 -> 575 ;
576 [label="entropy = 0.918\nsamples = 3\nvalue = [2, 1]\nclass = No"] ;
575 -> 576 ;
577 [label="entropy = 0.918\nsamples = 3\nvalue = [2, 1]\nclass = No"] ;
575 -> 577 ;
578 [label="entropy = 0.722\nsamples = 5\nvalue = [4, 1]\nclass = No"] ;
574 -> 578 ;
579 [label="entropy = 0.0\nsamples = 3\nvalue = [3, 0]\nclass = No"] ;
569 -> 579 ;
580 [label="entropy = 0.0\nsamples = 15\nvalue = [15, 0]\nclass = No"] ;
568 -> 580 ;
581 [label="age <= 42.5\nentropy = 1.0\nsamples = 4\nvalue = [2, 2]\nclass = No"] ;
567 -> 581 ;
582 [label="entropy = 0.0\nsamples = 1\nvalue = [1, 0]\nclass = No"] ;
581 -> 582 ;
583 [label="age <= 43.5\nentropy = 0.918\nsamples = 3\nvalue = [1, 2]\nclass = Yes"] ;
581 -> 583 ;
584 [label="entropy = 0.0\nsamples = 1\nvalue = [0, 1]\nclass = Yes"] ;
583 -> 584 ;
585 [label="body_camera <= 0.5\nentropy = 1.0\nsamples = 2\nvalue = [1, 1]\nclass = No"] ;
583 -> 585 ;
586 [label="entropy = 0.0\nsamples = 1\nvalue = [1, 0]\nclass = No"] ;
585 -> 586 ;
587 [label="entropy = 0.0\nsamples = 1\nvalue = [0, 1]\nclass = Yes"] ;
585 -> 587 ;
588 [label="age <= 41.5\nentropy = 0.954\nsamples = 8\nvalue = [5, 3]\nclass = No"] ;
564 -> 588 ;
589 [label="threat_level <= 0.5\nentropy = 0.65\nsamples = 6\nvalue = [5, 1]\nclass = No"] ;
588 -> 589 ;
590 [label="body_camera <= 0.5\nentropy = 0.918\nsamples = 3\nvalue = [2, 1]\nclass = No"] ;
589 -> 590 ;
591 [label="age <= 34.5\nentropy = 1.0\nsamples = 2\nvalue = [1, 1]\nclass = No"] ;
590 -> 591 ;
592 [label="entropy = 0.0\nsamples = 1\nvalue = [1, 0]\nclass = No"] ;
591 -> 592 ;
593 [label="entropy = 0.0\nsamples = 1\nvalue = [0, 1]\nclass = Yes"] ;
591 -> 593 ;
594 [label="entropy = 0.0\nsamples = 1\nvalue = [1, 0]\nclass = No"] ;
590 -> 594 ;
595 [label="entropy = 0.0\nsamples = 3\nvalue = [3, 0]\nclass = No"] ;
589 -> 595 ;
596 [label="entropy = 0.0\nsamples = 2\nvalue = [0, 2]\nclass = Yes"] ;
588 -> 596 ;
597 [label="threat_level <= 0.5\nentropy = 1.0\nsamples = 2\nvalue = [1, 1]\nclass = No"] ;
553 -> 597 ;
598 [label="entropy = 0.0\nsamples = 1\nvalue = [1, 0]\nclass = No"] ;
597 -> 598 ;
599 [label="entropy = 0.0\nsamples = 1\nvalue = [0, 1]\nclass = Yes"] ;
597 -> 599 ;
600 [label="age <= 53.5\nentropy = 0.371\nsamples = 14\nvalue = [13, 1]\nclass = No"] ;
552 -> 600 ;
601 [label="entropy = 0.0\nsamples = 8\nvalue = [8, 0]\nclass = No"] ;
600 -> 601 ;
602 [label="age <= 56.0\nentropy = 0.65\nsamples = 6\nvalue = [5, 1]\nclass = No"] ;
600 -> 602 ;
603 [label="entropy = 1.0\nsamples = 2\nvalue = [1, 1]\nclass = No"] ;
602 -> 603 ;
604 [label="entropy = 0.0\nsamples = 4\nvalue = [4, 0]\nclass = No"] ;
602 -> 604 ;
605 [label="entropy = 0.0\nsamples = 1\nvalue = [0, 1]\nclass = Yes"] ;
551 -> 605 ;
606 [label="entropy = 0.0\nsamples = 2\nvalue = [0, 2]\nclass = Yes"] ;
550 -> 606 ;
607 [label="entropy = 0.0\nsamples = 10\nvalue = [10, 0]\nclass = No"] ;
475 -> 607 ;
608 [label="age <= 71.5\nentropy = 0.918\nsamples = 3\nvalue = [1, 2]\nclass = Yes"] ;
380 -> 608 ;
609 [label="entropy = 0.0\nsamples = 1\nvalue = [0, 1]\nclass = Yes"] ;
608 -> 609 ;
610 [label="age <= 75.5\nentropy = 1.0\nsamples = 2\nvalue = [1, 1]\nclass = No"] ;
608 -> 610 ;
611 [label="entropy = 0.0\nsamples = 1\nvalue = [1, 0]\nclass = No"] ;
610 -> 611 ;
612 [label="entropy = 0.0\nsamples = 1\nvalue = [0, 1]\nclass = Yes"] ;
610 -> 612 ;
613 [label="flee <= 2.5\nentropy = 0.889\nsamples = 418\nvalue = [290, 128]\nclass = No"] ;
337 -> 613 ;
614 [label="threat_level <= 1.5\nentropy = 0.904\nsamples = 401\nvalue = [273, 128]\nclass = No"] ;
613 -> 614 ;
615 [label="threat_level <= 0.5\nentropy = 0.922\nsamples = 374\nvalue = [248, 126]\nclass = No"] ;
614 -> 615 ;
616 [label="body_camera <= 0.5\nentropy = 0.816\nsamples = 166\nvalue = [124, 42]\nclass = No"] ;
615 -> 616 ;
617 [label="armed <= 38.5\nentropy = 0.77\nsamples = 142\nvalue = [110, 32]\nclass = No"] ;
616 -> 617 ;
618 [label="entropy = 0.0\nsamples = 1\nvalue = [0, 1]\nclass = Yes"] ;
617 -> 618 ;
619 [label="age <= 21.5\nentropy = 0.76\nsamples = 141\nvalue = [110, 31]\nclass = No"] ;
617 -> 619 ;
620 [label="race <= 1.5\nentropy = 0.98\nsamples = 12\nvalue = [7, 5]\nclass = No"] ;
619 -> 620 ;
621 [label="age <= 20.5\nentropy = 0.592\nsamples = 7\nvalue = [6, 1]\nclass = No"] ;
620 -> 621 ;
622 [label="entropy = 0.0\nsamples = 5\nvalue = [5, 0]\nclass = No"] ;
621 -> 622 ;
623 [label="armed <= 75.5\nentropy = 1.0\nsamples = 2\nvalue = [1, 1]\nclass = No"] ;
621 -> 623 ;
624 [label="entropy = 0.0\nsamples = 1\nvalue = [0, 1]\nclass = Yes"] ;
623 -> 624 ;
625 [label="entropy = 0.0\nsamples = 1\nvalue = [1, 0]\nclass = No"] ;
623 -> 625 ;
626 [label="age <= 20.5\nentropy = 0.722\nsamples = 5\nvalue = [1, 4]\nclass = Yes"] ;
620 -> 626 ;
627 [label="entropy = 0.0\nsamples = 3\nvalue = [0, 3]\nclass = Yes"] ;
626 -> 627 ;
628 [label="armed <= 58.0\nentropy = 1.0\nsamples = 2\nvalue = [1, 1]\nclass = No"] ;
626 -> 628 ;
629 [label="entropy = 0.0\nsamples = 1\nvalue = [1, 0]\nclass = No"] ;
628 -> 629 ;
630 [label="entropy = 0.0\nsamples = 1\nvalue = [0, 1]\nclass = Yes"] ;
628 -> 630 ;
631 [label="race <= 1.5\nentropy = 0.725\nsamples = 129\nvalue = [103, 26]\nclass = No"] ;
619 -> 631 ;
632 [label="gender <= 0.5\nentropy = 0.837\nsamples = 75\nvalue = [55, 20]\nclass = No"] ;
631 -> 632 ;
633 [label="entropy = 0.0\nsamples = 4\nvalue = [4, 0]\nclass = No"] ;
632 -> 633 ;
634 [label="age <= 24.5\nentropy = 0.858\nsamples = 71\nvalue = [51, 20]\nclass = No"] ;
632 -> 634 ;
635 [label="entropy = 0.0\nsamples = 3\nvalue = [3, 0]\nclass = No"] ;
634 -> 635 ;
636 [label="armed <= 42.0\nentropy = 0.874\nsamples = 68\nvalue = [48, 20]\nclass = No"] ;
634 -> 636 ;
637 [label="age <= 25.5\nentropy = 0.753\nsamples = 37\nvalue = [29, 8]\nclass = No"] ;
636 -> 637 ;
638 [label="entropy = 0.971\nsamples = 5\nvalue = [2, 3]\nclass = Yes"] ;
637 -> 638 ;
639 [label="manner_of_death <= 0.5\nentropy = 0.625\nsamples = 32\nvalue = [27, 5]\nclass = No"] ;
637 -> 639 ;
640 [label="age <= 29.5\nentropy = 0.555\nsamples = 31\nvalue = [27, 4]\nclass = No"] ;
639 -> 640 ;
641 [label="age <= 27.5\nentropy = 0.811\nsamples = 8\nvalue = [6, 2]\nclass = No"] ;
640 -> 641 ;
642 [label="entropy = 0.0\nsamples = 4\nvalue = [4, 0]\nclass = No"] ;
641 -> 642 ;
643 [label="age <= 28.5\nentropy = 1.0\nsamples = 4\nvalue = [2, 2]\nclass = No"] ;
641 -> 643 ;
644 [label="entropy = 1.0\nsamples = 2\nvalue = [1, 1]\nclass = No"] ;
643 -> 644 ;
645 [label="entropy = 1.0\nsamples = 2\nvalue = [1, 1]\nclass = No"] ;
643 -> 645 ;
646 [label="age <= 35.5\nentropy = 0.426\nsamples = 23\nvalue = [21, 2]\nclass = No"] ;
640 -> 646 ;
647 [label="entropy = 0.0\nsamples = 6\nvalue = [6, 0]\nclass = No"] ;
646 -> 647 ;
648 [label="age <= 36.5\nentropy = 0.523\nsamples = 17\nvalue = [15, 2]\nclass = No"] ;
646 -> 648 ;
649 [label="entropy = 1.0\nsamples = 2\nvalue = [1, 1]\nclass = No"] ;
648 -> 649 ;
650 [label="age <= 54.5\nentropy = 0.353\nsamples = 15\nvalue = [14, 1]\nclass = No"] ;
648 -> 650 ;
651 [label="entropy = 0.0\nsamples = 11\nvalue = [11, 0]\nclass = No"] ;
650 -> 651 ;
652 [label="age <= 55.5\nentropy = 0.811\nsamples = 4\nvalue = [3, 1]\nclass = No"] ;
650 -> 652 ;
653 [label="race <= 0.5\nentropy = 1.0\nsamples = 2\nvalue = [1, 1]\nclass = No"] ;
652 -> 653 ;
654 [label="entropy = 0.0\nsamples = 1\nvalue = [0, 1]\nclass = Yes"] ;
653 -> 654 ;
655 [label="entropy = 0.0\nsamples = 1\nvalue = [1, 0]\nclass = No"] ;
653 -> 655 ;
656 [label="entropy = 0.0\nsamples = 2\nvalue = [2, 0]\nclass = No"] ;
652 -> 656 ;
657 [label="entropy = 0.0\nsamples = 1\nvalue = [0, 1]\nclass = Yes"] ;
639 -> 657 ;
658 [label="age <= 28.5\nentropy = 0.963\nsamples = 31\nvalue = [19, 12]\nclass = No"] ;
636 -> 658 ;
659 [label="entropy = 0.0\nsamples = 3\nvalue = [3, 0]\nclass = No"] ;
658 -> 659 ;
660 [label="age <= 31.5\nentropy = 0.985\nsamples = 28\nvalue = [16, 12]\nclass = No"] ;
658 -> 660 ;
661 [label="age <= 29.5\nentropy = 0.722\nsamples = 5\nvalue = [1, 4]\nclass = Yes"] ;
660 -> 661 ;
662 [label="entropy = 1.0\nsamples = 2\nvalue = [1, 1]\nclass = No"] ;
661 -> 662 ;
663 [label="entropy = 0.0\nsamples = 3\nvalue = [0, 3]\nclass = Yes"] ;
661 -> 663 ;
664 [label="armed <= 75.5\nentropy = 0.932\nsamples = 23\nvalue = [15, 8]\nclass = No"] ;
660 -> 664 ;
665 [label="age <= 64.0\nentropy = 0.971\nsamples = 20\nvalue = [12, 8]\nclass = No"] ;
664 -> 665 ;
666 [label="age <= 41.5\nentropy = 0.991\nsamples = 18\nvalue = [10, 8]\nclass = No"] ;
665 -> 666 ;
667 [label="age <= 35.5\nentropy = 0.89\nsamples = 13\nvalue = [9, 4]\nclass = No"] ;
666 -> 667 ;
668 [label="age <= 32.5\nentropy = 0.971\nsamples = 5\nvalue = [2, 3]\nclass = Yes"] ;
667 -> 668 ;
669 [label="entropy = 0.0\nsamples = 1\nvalue = [1, 0]\nclass = No"] ;
668 -> 669 ;
670 [label="armed <= 61.5\nentropy = 0.811\nsamples = 4\nvalue = [1, 3]\nclass = Yes"] ;
668 -> 670 ;
671 [label="entropy = 0.0\nsamples = 1\nvalue = [0, 1]\nclass = Yes"] ;
670 -> 671 ;
672 [label="age <= 33.5\nentropy = 0.918\nsamples = 3\nvalue = [1, 2]\nclass = Yes"] ;
670 -> 672 ;
673 [label="entropy = 0.0\nsamples = 1\nvalue = [0, 1]\nclass = Yes"] ;
672 -> 673 ;
674 [label="age <= 34.5\nentropy = 1.0\nsamples = 2\nvalue = [1, 1]\nclass = No"] ;
672 -> 674 ;
675 [label="entropy = 0.0\nsamples = 1\nvalue = [1, 0]\nclass = No"] ;
674 -> 675 ;
676 [label="entropy = 0.0\nsamples = 1\nvalue = [0, 1]\nclass = Yes"] ;
674 -> 676 ;
677 [label="age <= 38.0\nentropy = 0.544\nsamples = 8\nvalue = [7, 1]\nclass = No"] ;
667 -> 677 ;
678 [label="entropy = 0.0\nsamples = 4\nvalue = [4, 0]\nclass = No"] ;
677 -> 678 ;
679 [label="armed <= 61.0\nentropy = 0.811\nsamples = 4\nvalue = [3, 1]\nclass = No"] ;
677 -> 679 ;
680 [label="entropy = 0.0\nsamples = 1\nvalue = [1, 0]\nclass = No"] ;
679 -> 680 ;
681 [label="entropy = 0.918\nsamples = 3\nvalue = [2, 1]\nclass = No"] ;
679 -> 681 ;
682 [label="age <= 46.5\nentropy = 0.722\nsamples = 5\nvalue = [1, 4]\nclass = Yes"] ;
666 -> 682 ;
683 [label="entropy = 0.0\nsamples = 3\nvalue = [0, 3]\nclass = Yes"] ;
682 -> 683 ;
684 [label="armed <= 58.5\nentropy = 1.0\nsamples = 2\nvalue = [1, 1]\nclass = No"] ;
682 -> 684 ;
685 [label="entropy = 0.0\nsamples = 1\nvalue = [0, 1]\nclass = Yes"] ;
684 -> 685 ;
686 [label="entropy = 0.0\nsamples = 1\nvalue = [1, 0]\nclass = No"] ;
684 -> 686 ;
687 [label="entropy = 0.0\nsamples = 2\nvalue = [2, 0]\nclass = No"] ;
665 -> 687 ;
688 [label="entropy = 0.0\nsamples = 3\nvalue = [3, 0]\nclass = No"] ;
664 -> 688 ;
689 [label="age <= 49.5\nentropy = 0.503\nsamples = 54\nvalue = [48, 6]\nclass = No"] ;
631 -> 689 ;
690 [label="armed <= 75.5\nentropy = 0.348\nsamples = 46\nvalue = [43, 3]\nclass = No"] ;
689 -> 690 ;
691 [label="age <= 37.5\nentropy = 0.267\nsamples = 44\nvalue = [42, 2]\nclass = No"] ;
690 -> 691 ;
692 [label="entropy = 0.0\nsamples = 29\nvalue = [29, 0]\nclass = No"] ;
691 -> 692 ;
693 [label="armed <= 45.5\nentropy = 0.567\nsamples = 15\nvalue = [13, 2]\nclass = No"] ;
691 -> 693 ;
694 [label="age <= 40.0\nentropy = 0.918\nsamples = 6\nvalue = [4, 2]\nclass = No"] ;
693 -> 694 ;
695 [label="entropy = 0.0\nsamples = 2\nvalue = [0, 2]\nclass = Yes"] ;
694 -> 695 ;
696 [label="entropy = 0.0\nsamples = 4\nvalue = [4, 0]\nclass = No"] ;
694 -> 696 ;
697 [label="entropy = 0.0\nsamples = 9\nvalue = [9, 0]\nclass = No"] ;
693 -> 697 ;
698 [label="age <= 24.0\nentropy = 1.0\nsamples = 2\nvalue = [1, 1]\nclass = No"] ;
690 -> 698 ;
699 [label="entropy = 0.0\nsamples = 1\nvalue = [1, 0]\nclass = No"] ;
698 -> 699 ;
700 [label="entropy = 0.0\nsamples = 1\nvalue = [0, 1]\nclass = Yes"] ;
698 -> 700 ;
701 [label="armed <= 74.5\nentropy = 0.954\nsamples = 8\nvalue = [5, 3]\nclass = No"] ;
689 -> 701 ;
702 [label="armed <= 57.5\nentropy = 0.971\nsamples = 5\nvalue = [2, 3]\nclass = Yes"] ;
701 -> 702 ;
703 [label="age <= 51.0\nentropy = 0.918\nsamples = 3\nvalue = [2, 1]\nclass = No"] ;
702 -> 703 ;
704 [label="entropy = 0.0\nsamples = 1\nvalue = [0, 1]\nclass = Yes"] ;
703 -> 704 ;
705 [label="entropy = 0.0\nsamples = 2\nvalue = [2, 0]\nclass = No"] ;
703 -> 705 ;
706 [label="entropy = 0.0\nsamples = 2\nvalue = [0, 2]\nclass = Yes"] ;
702 -> 706 ;
707 [label="entropy = 0.0\nsamples = 3\nvalue = [3, 0]\nclass = No"] ;
701 -> 707 ;
708 [label="age <= 61.0\nentropy = 0.98\nsamples = 24\nvalue = [14, 10]\nclass = No"] ;
616 -> 708 ;
709 [label="age <= 43.5\nentropy = 0.946\nsamples = 22\nvalue = [14, 8]\nclass = No"] ;
708 -> 709 ;
710 [label="armed <= 74.5\nentropy = 0.998\nsamples = 17\nvalue = [9, 8]\nclass = No"] ;
709 -> 710 ;
711 [label="race <= 0.5\nentropy = 0.845\nsamples = 11\nvalue = [8, 3]\nclass = No"] ;
710 -> 711 ;
712 [label="entropy = 0.0\nsamples = 1\nvalue = [0, 1]\nclass = Yes"] ;
711 -> 712 ;
713 [label="age <= 29.5\nentropy = 0.722\nsamples = 10\nvalue = [8, 2]\nclass = No"] ;
711 -> 713 ;
714 [label="entropy = 0.0\nsamples = 3\nvalue = [3, 0]\nclass = No"] ;
713 -> 714 ;
715 [label="age <= 31.5\nentropy = 0.863\nsamples = 7\nvalue = [5, 2]\nclass = No"] ;
713 -> 715 ;
716 [label="entropy = 0.0\nsamples = 1\nvalue = [0, 1]\nclass = Yes"] ;
715 -> 716 ;
717 [label="manner_of_death <= 0.5\nentropy = 0.65\nsamples = 6\nvalue = [5, 1]\nclass = No"] ;
715 -> 717 ;
718 [label="entropy = 0.0\nsamples = 4\nvalue = [4, 0]\nclass = No"] ;
717 -> 718 ;
719 [label="race <= 1.5\nentropy = 1.0\nsamples = 2\nvalue = [1, 1]\nclass = No"] ;
717 -> 719 ;
720 [label="entropy = 0.0\nsamples = 1\nvalue = [1, 0]\nclass = No"] ;
719 -> 720 ;
721 [label="entropy = 0.0\nsamples = 1\nvalue = [0, 1]\nclass = Yes"] ;
719 -> 721 ;
722 [label="age <= 33.5\nentropy = 0.65\nsamples = 6\nvalue = [1, 5]\nclass = Yes"] ;
710 -> 722 ;
723 [label="entropy = 0.0\nsamples = 1\nvalue = [1, 0]\nclass = No"] ;
722 -> 723 ;
724 [label="entropy = 0.0\nsamples = 5\nvalue = [0, 5]\nclass = Yes"] ;
722 -> 724 ;
725 [label="entropy = 0.0\nsamples = 5\nvalue = [5, 0]\nclass = No"] ;
709 -> 725 ;
726 [label="entropy = 0.0\nsamples = 2\nvalue = [0, 2]\nclass = Yes"] ;
708 -> 726 ;
727 [label="armed <= 54.0\nentropy = 0.973\nsamples = 208\nvalue = [124, 84]\nclass = No"] ;
615 -> 727 ;
728 [label="age <= 38.5\nentropy = 0.997\nsamples = 137\nvalue = [73, 64]\nclass = No"] ;
727 -> 728 ;
729 [label="age <= 22.5\nentropy = 0.994\nsamples = 90\nvalue = [41, 49]\nclass = Yes"] ;
728 -> 729 ;
730 [label="race <= 0.5\nentropy = 0.852\nsamples = 18\nvalue = [13, 5]\nclass = No"] ;
729 -> 730 ;
731 [label="entropy = 0.0\nsamples = 2\nvalue = [0, 2]\nclass = Yes"] ;
730 -> 731 ;
732 [label="armed <= 41.5\nentropy = 0.696\nsamples = 16\nvalue = [13, 3]\nclass = No"] ;
730 -> 732 ;
733 [label="body_camera <= 0.5\nentropy = 0.779\nsamples = 13\nvalue = [10, 3]\nclass = No"] ;
732 -> 733 ;
734 [label="armed <= 38.5\nentropy = 0.845\nsamples = 11\nvalue = [8, 3]\nclass = No"] ;
733 -> 734 ;
735 [label="entropy = 0.0\nsamples = 1\nvalue = [1, 0]\nclass = No"] ;
734 -> 735 ;
736 [label="race <= 2.5\nentropy = 0.881\nsamples = 10\nvalue = [7, 3]\nclass = No"] ;
734 -> 736 ;
737 [label="age <= 17.5\nentropy = 0.918\nsamples = 9\nvalue = [6, 3]\nclass = No"] ;
736 -> 737 ;
738 [label="entropy = 0.0\nsamples = 1\nvalue = [0, 1]\nclass = Yes"] ;
737 -> 738 ;
739 [label="age <= 20.0\nentropy = 0.811\nsamples = 8\nvalue = [6, 2]\nclass = No"] ;
737 -> 739 ;
740 [label="entropy = 0.0\nsamples = 2\nvalue = [2, 0]\nclass = No"] ;
739 -> 740 ;
741 [label="race <= 1.5\nentropy = 0.918\nsamples = 6\nvalue = [4, 2]\nclass = No"] ;
739 -> 741 ;
742 [label="entropy = 0.0\nsamples = 1\nvalue = [1, 0]\nclass = No"] ;
741 -> 742 ;
743 [label="age <= 21.5\nentropy = 0.971\nsamples = 5\nvalue = [3, 2]\nclass = No"] ;
741 -> 743 ;
744 [label="entropy = 1.0\nsamples = 2\nvalue = [1, 1]\nclass = No"] ;
743 -> 744 ;
745 [label="entropy = 0.918\nsamples = 3\nvalue = [2, 1]\nclass = No"] ;
743 -> 745 ;
746 [label="entropy = 0.0\nsamples = 1\nvalue = [1, 0]\nclass = No"] ;
736 -> 746 ;
747 [label="entropy = 0.0\nsamples = 2\nvalue = [2, 0]\nclass = No"] ;
733 -> 747 ;
748 [label="entropy = 0.0\nsamples = 3\nvalue = [3, 0]\nclass = No"] ;
732 -> 748 ;
749 [label="age <= 23.5\nentropy = 0.964\nsamples = 72\nvalue = [28, 44]\nclass = Yes"] ;
729 -> 749 ;
750 [label="entropy = 0.0\nsamples = 3\nvalue = [0, 3]\nclass = Yes"] ;
749 -> 750 ;
751 [label="armed <= 44.5\nentropy = 0.974\nsamples = 69\nvalue = [28, 41]\nclass = Yes"] ;
749 -> 751 ;
752 [label="race <= 2.5\nentropy = 0.983\nsamples = 66\nvalue = [28, 38]\nclass = Yes"] ;
751 -> 752 ;
753 [label="armed <= 35.5\nentropy = 0.973\nsamples = 62\nvalue = [25, 37]\nclass = Yes"] ;
752 -> 753 ;
754 [label="entropy = 0.0\nsamples = 1\nvalue = [0, 1]\nclass = Yes"] ;
753 -> 754 ;
755 [label="armed <= 38.5\nentropy = 0.976\nsamples = 61\nvalue = [25, 36]\nclass = Yes"] ;
753 -> 755 ;
756 [label="entropy = 0.0\nsamples = 1\nvalue = [1, 0]\nclass = No"] ;
755 -> 756 ;
757 [label="age <= 25.5\nentropy = 0.971\nsamples = 60\nvalue = [24, 36]\nclass = Yes"] ;
755 -> 757 ;
758 [label="gender <= 0.5\nentropy = 0.811\nsamples = 8\nvalue = [2, 6]\nclass = Yes"] ;
757 -> 758 ;
759 [label="entropy = 0.0\nsamples = 1\nvalue = [1, 0]\nclass = No"] ;
758 -> 759 ;
760 [label="manner_of_death <= 0.5\nentropy = 0.592\nsamples = 7\nvalue = [1, 6]\nclass = Yes"] ;
758 -> 760 ;
761 [label="entropy = 0.0\nsamples = 3\nvalue = [0, 3]\nclass = Yes"] ;
760 -> 761 ;
762 [label="age <= 24.5\nentropy = 0.811\nsamples = 4\nvalue = [1, 3]\nclass = Yes"] ;
760 -> 762 ;
763 [label="entropy = 0.0\nsamples = 1\nvalue = [1, 0]\nclass = No"] ;
762 -> 763 ;
764 [label="entropy = 0.0\nsamples = 3\nvalue = [0, 3]\nclass = Yes"] ;
762 -> 764 ;
765 [label="armed <= 42.0\nentropy = 0.983\nsamples = 52\nvalue = [22, 30]\nclass = Yes"] ;
757 -> 765 ;
766 [label="age <= 27.5\nentropy = 0.968\nsamples = 48\nvalue = [19, 29]\nclass = Yes"] ;
765 -> 766 ;
767 [label="gender <= 0.5\nentropy = 0.954\nsamples = 8\nvalue = [5, 3]\nclass = No"] ;
766 -> 767 ;
768 [label="entropy = 0.0\nsamples = 1\nvalue = [1, 0]\nclass = No"] ;
767 -> 768 ;
769 [label="manner_of_death <= 0.5\nentropy = 0.985\nsamples = 7\nvalue = [4, 3]\nclass = No"] ;
767 -> 769 ;
770 [label="race <= 1.5\nentropy = 1.0\nsamples = 6\nvalue = [3, 3]\nclass = No"] ;
769 -> 770 ;
771 [label="age <= 26.5\nentropy = 1.0\nsamples = 4\nvalue = [2, 2]\nclass = No"] ;
770 -> 771 ;
772 [label="entropy = 1.0\nsamples = 2\nvalue = [1, 1]\nclass = No"] ;
771 -> 772 ;
773 [label="entropy = 1.0\nsamples = 2\nvalue = [1, 1]\nclass = No"] ;
771 -> 773 ;
774 [label="entropy = 1.0\nsamples = 2\nvalue = [1, 1]\nclass = No"] ;
770 -> 774 ;
775 [label="entropy = 0.0\nsamples = 1\nvalue = [1, 0]\nclass = No"] ;
769 -> 775 ;
776 [label="body_camera <= 0.5\nentropy = 0.934\nsamples = 40\nvalue = [14, 26]\nclass = Yes"] ;
766 -> 776 ;
777 [label="age <= 35.5\nentropy = 0.885\nsamples = 33\nvalue = [10, 23]\nclass = Yes"] ;
776 -> 777 ;
778 [label="age <= 30.5\nentropy = 0.722\nsamples = 20\nvalue = [4, 16]\nclass = Yes"] ;
777 -> 778 ;
779 [label="race <= 1.5\nentropy = 0.946\nsamples = 11\nvalue = [4, 7]\nclass = Yes"] ;
778 -> 779 ;
780 [label="age <= 29.5\nentropy = 0.65\nsamples = 6\nvalue = [1, 5]\nclass = Yes"] ;
779 -> 780 ;
781 [label="entropy = 0.0\nsamples = 4\nvalue = [0, 4]\nclass = Yes"] ;
780 -> 781 ;
782 [label="manner_of_death <= 0.5\nentropy = 1.0\nsamples = 2\nvalue = [1, 1]\nclass = No"] ;
780 -> 782 ;
783 [label="entropy = 0.0\nsamples = 1\nvalue = [0, 1]\nclass = Yes"] ;
782 -> 783 ;
784 [label="entropy = 0.0\nsamples = 1\nvalue = [1, 0]\nclass = No"] ;
782 -> 784 ;
785 [label="age <= 29.5\nentropy = 0.971\nsamples = 5\nvalue = [3, 2]\nclass = No"] ;
779 -> 785 ;
786 [label="age <= 28.5\nentropy = 0.811\nsamples = 4\nvalue = [3, 1]\nclass = No"] ;
785 -> 786 ;
787 [label="entropy = 1.0\nsamples = 2\nvalue = [1, 1]\nclass = No"] ;
786 -> 787 ;
788 [label="entropy = 0.0\nsamples = 2\nvalue = [2, 0]\nclass = No"] ;
786 -> 788 ;
789 [label="entropy = 0.0\nsamples = 1\nvalue = [0, 1]\nclass = Yes"] ;
785 -> 789 ;
790 [label="entropy = 0.0\nsamples = 9\nvalue = [0, 9]\nclass = Yes"] ;
778 -> 790 ;
791 [label="race <= 0.5\nentropy = 0.996\nsamples = 13\nvalue = [6, 7]\nclass = Yes"] ;
777 -> 791 ;
792 [label="entropy = 0.0\nsamples = 2\nvalue = [0, 2]\nclass = Yes"] ;
791 -> 792 ;
793 [label="age <= 37.5\nentropy = 0.994\nsamples = 11\nvalue = [6, 5]\nclass = No"] ;
791 -> 793 ;
794 [label="age <= 36.5\nentropy = 0.954\nsamples = 8\nvalue = [5, 3]\nclass = No"] ;
793 -> 794 ;
795 [label="manner_of_death <= 0.5\nentropy = 1.0\nsamples = 4\nvalue = [2, 2]\nclass = No"] ;
794 -> 795 ;
796 [label="race <= 1.5\nentropy = 0.918\nsamples = 3\nvalue = [2, 1]\nclass = No"] ;
795 -> 796 ;
797 [label="entropy = 0.0\nsamples = 2\nvalue = [2, 0]\nclass = No"] ;
796 -> 797 ;
798 [label="entropy = 0.0\nsamples = 1\nvalue = [0, 1]\nclass = Yes"] ;
796 -> 798 ;
799 [label="entropy = 0.0\nsamples = 1\nvalue = [0, 1]\nclass = Yes"] ;
795 -> 799 ;
800 [label="manner_of_death <= 0.5\nentropy = 0.811\nsamples = 4\nvalue = [3, 1]\nclass = No"] ;
794 -> 800 ;
801 [label="entropy = 0.918\nsamples = 3\nvalue = [2, 1]\nclass = No"] ;
800 -> 801 ;
802 [label="entropy = 0.0\nsamples = 1\nvalue = [1, 0]\nclass = No"] ;
800 -> 802 ;
803 [label="manner_of_death <= 0.5\nentropy = 0.918\nsamples = 3\nvalue = [1, 2]\nclass = Yes"] ;
793 -> 803 ;
804 [label="entropy = 1.0\nsamples = 2\nvalue = [1, 1]\nclass = No"] ;
803 -> 804 ;
805 [label="entropy = 0.0\nsamples = 1\nvalue = [0, 1]\nclass = Yes"] ;
803 -> 805 ;
806 [label="age <= 36.0\nentropy = 0.985\nsamples = 7\nvalue = [4, 3]\nclass = No"] ;
776 -> 806 ;
807 [label="age <= 31.5\nentropy = 0.918\nsamples = 6\nvalue = [4, 2]\nclass = No"] ;
806 -> 807 ;
808 [label="manner_of_death <= 0.5\nentropy = 1.0\nsamples = 4\nvalue = [2, 2]\nclass = No"] ;
807 -> 808 ;
809 [label="age <= 29.0\nentropy = 0.918\nsamples = 3\nvalue = [1, 2]\nclass = Yes"] ;
808 -> 809 ;
810 [label="entropy = 0.0\nsamples = 1\nvalue = [1, 0]\nclass = No"] ;
809 -> 810 ;
811 [label="entropy = 0.0\nsamples = 2\nvalue = [0, 2]\nclass = Yes"] ;
809 -> 811 ;
812 [label="entropy = 0.0\nsamples = 1\nvalue = [1, 0]\nclass = No"] ;
808 -> 812 ;
813 [label="entropy = 0.0\nsamples = 2\nvalue = [2, 0]\nclass = No"] ;
807 -> 813 ;
814 [label="entropy = 0.0\nsamples = 1\nvalue = [0, 1]\nclass = Yes"] ;
806 -> 814 ;
815 [label="age <= 33.5\nentropy = 0.811\nsamples = 4\nvalue = [3, 1]\nclass = No"] ;
765 -> 815 ;
816 [label="entropy = 0.0\nsamples = 1\nvalue = [0, 1]\nclass = Yes"] ;
815 -> 816 ;
817 [label="entropy = 0.0\nsamples = 3\nvalue = [3, 0]\nclass = No"] ;
815 -> 817 ;
818 [label="age <= 31.5\nentropy = 0.811\nsamples = 4\nvalue = [3, 1]\nclass = No"] ;
752 -> 818 ;
819 [label="age <= 26.5\nentropy = 1.0\nsamples = 2\nvalue = [1, 1]\nclass = No"] ;
818 -> 819 ;
820 [label="entropy = 0.0\nsamples = 1\nvalue = [1, 0]\nclass = No"] ;
819 -> 820 ;
821 [label="entropy = 0.0\nsamples = 1\nvalue = [0, 1]\nclass = Yes"] ;
819 -> 821 ;
822 [label="entropy = 0.0\nsamples = 2\nvalue = [2, 0]\nclass = No"] ;
818 -> 822 ;
823 [label="entropy = 0.0\nsamples = 3\nvalue = [0, 3]\nclass = Yes"] ;
751 -> 823 ;
824 [label="race <= 0.5\nentropy = 0.903\nsamples = 47\nvalue = [32, 15]\nclass = No"] ;
728 -> 824 ;
825 [label="entropy = 0.0\nsamples = 5\nvalue = [5, 0]\nclass = No"] ;
824 -> 825 ;
826 [label="gender <= 0.5\nentropy = 0.94\nsamples = 42\nvalue = [27, 15]\nclass = No"] ;
824 -> 826 ;
827 [label="entropy = 0.0\nsamples = 3\nvalue = [0, 3]\nclass = Yes"] ;
826 -> 827 ;
828 [label="age <= 63.5\nentropy = 0.89\nsamples = 39\nvalue = [27, 12]\nclass = No"] ;
826 -> 828 ;
829 [label="race <= 1.5\nentropy = 0.928\nsamples = 35\nvalue = [23, 12]\nclass = No"] ;
828 -> 829 ;
830 [label="armed <= 42.0\nentropy = 1.0\nsamples = 16\nvalue = [8, 8]\nclass = No"] ;
829 -> 830 ;
831 [label="age <= 60.0\nentropy = 0.985\nsamples = 14\nvalue = [8, 6]\nclass = No"] ;
830 -> 831 ;
832 [label="age <= 54.5\nentropy = 0.961\nsamples = 13\nvalue = [8, 5]\nclass = No"] ;
831 -> 832 ;
833 [label="age <= 52.5\nentropy = 0.994\nsamples = 11\nvalue = [6, 5]\nclass = No"] ;
832 -> 833 ;
834 [label="age <= 46.5\nentropy = 0.971\nsamples = 10\nvalue = [6, 4]\nclass = No"] ;
833 -> 834 ;
835 [label="age <= 44.0\nentropy = 1.0\nsamples = 8\nvalue = [4, 4]\nclass = No"] ;
834 -> 835 ;
836 [label="body_camera <= 0.5\nentropy = 0.985\nsamples = 7\nvalue = [4, 3]\nclass = No"] ;
835 -> 836 ;
837 [label="age <= 40.0\nentropy = 0.811\nsamples = 4\nvalue = [3, 1]\nclass = No"] ;
836 -> 837 ;
838 [label="entropy = 0.0\nsamples = 1\nvalue = [1, 0]\nclass = No"] ;
837 -> 838 ;
839 [label="age <= 41.5\nentropy = 0.918\nsamples = 3\nvalue = [2, 1]\nclass = No"] ;
837 -> 839 ;
840 [label="entropy = 1.0\nsamples = 2\nvalue = [1, 1]\nclass = No"] ;
839 -> 840 ;
841 [label="entropy = 0.0\nsamples = 1\nvalue = [1, 0]\nclass = No"] ;
839 -> 841 ;
842 [label="age <= 41.0\nentropy = 0.918\nsamples = 3\nvalue = [1, 2]\nclass = Yes"] ;
836 -> 842 ;
843 [label="entropy = 0.0\nsamples = 1\nvalue = [0, 1]\nclass = Yes"] ;
842 -> 843 ;
844 [label="entropy = 1.0\nsamples = 2\nvalue = [1, 1]\nclass = No"] ;
842 -> 844 ;
845 [label="entropy = 0.0\nsamples = 1\nvalue = [0, 1]\nclass = Yes"] ;
835 -> 845 ;
846 [label="entropy = 0.0\nsamples = 2\nvalue = [2, 0]\nclass = No"] ;
834 -> 846 ;
847 [label="entropy = 0.0\nsamples = 1\nvalue = [0, 1]\nclass = Yes"] ;
833 -> 847 ;
848 [label="entropy = 0.0\nsamples = 2\nvalue = [2, 0]\nclass = No"] ;
832 -> 848 ;
849 [label="entropy = 0.0\nsamples = 1\nvalue = [0, 1]\nclass = Yes"] ;
831 -> 849 ;
850 [label="entropy = 0.0\nsamples = 2\nvalue = [0, 2]\nclass = Yes"] ;
830 -> 850 ;
851 [label="armed <= 44.0\nentropy = 0.742\nsamples = 19\nvalue = [15, 4]\nclass = No"] ;
829 -> 851 ;
852 [label="age <= 48.5\nentropy = 0.65\nsamples = 18\nvalue = [15, 3]\nclass = No"] ;
851 -> 852 ;
853 [label="age <= 44.5\nentropy = 0.391\nsamples = 13\nvalue = [12, 1]\nclass = No"] ;
852 -> 853 ;
854 [label="age <= 43.5\nentropy = 0.65\nsamples = 6\nvalue = [5, 1]\nclass = No"] ;
853 -> 854 ;
855 [label="entropy = 0.0\nsamples = 5\nvalue = [5, 0]\nclass = No"] ;
854 -> 855 ;
856 [label="entropy = 0.0\nsamples = 1\nvalue = [0, 1]\nclass = Yes"] ;
854 -> 856 ;
857 [label="entropy = 0.0\nsamples = 7\nvalue = [7, 0]\nclass = No"] ;
853 -> 857 ;
858 [label="race <= 2.5\nentropy = 0.971\nsamples = 5\nvalue = [3, 2]\nclass = No"] ;
852 -> 858 ;
859 [label="age <= 53.5\nentropy = 0.811\nsamples = 4\nvalue = [3, 1]\nclass = No"] ;
858 -> 859 ;
860 [label="entropy = 0.0\nsamples = 2\nvalue = [2, 0]\nclass = No"] ;
859 -> 860 ;
861 [label="age <= 57.0\nentropy = 1.0\nsamples = 2\nvalue = [1, 1]\nclass = No"] ;
859 -> 861 ;
862 [label="entropy = 0.0\nsamples = 1\nvalue = [0, 1]\nclass = Yes"] ;
861 -> 862 ;
863 [label="entropy = 0.0\nsamples = 1\nvalue = [1, 0]\nclass = No"] ;
861 -> 863 ;
864 [label="entropy = 0.0\nsamples = 1\nvalue = [0, 1]\nclass = Yes"] ;
858 -> 864 ;
865 [label="entropy = 0.0\nsamples = 1\nvalue = [0, 1]\nclass = Yes"] ;
851 -> 865 ;
866 [label="entropy = 0.0\nsamples = 4\nvalue = [4, 0]\nclass = No"] ;
828 -> 866 ;
867 [label="armed <= 66.5\nentropy = 0.858\nsamples = 71\nvalue = [51, 20]\nclass = No"] ;
727 -> 867 ;
868 [label="entropy = 0.0\nsamples = 5\nvalue = [5, 0]\nclass = No"] ;
867 -> 868 ;
869 [label="race <= 2.5\nentropy = 0.885\nsamples = 66\nvalue = [46, 20]\nclass = No"] ;
867 -> 869 ;
870 [label="age <= 48.0\nentropy = 0.872\nsamples = 65\nvalue = [46, 19]\nclass = No"] ;
869 -> 870 ;
871 [label="age <= 45.0\nentropy = 0.831\nsamples = 57\nvalue = [42, 15]\nclass = No"] ;
870 -> 871 ;
872 [label="age <= 39.0\nentropy = 0.867\nsamples = 52\nvalue = [37, 15]\nclass = No"] ;
871 -> 872 ;
873 [label="age <= 29.5\nentropy = 0.802\nsamples = 45\nvalue = [34, 11]\nclass = No"] ;
872 -> 873 ;
874 [label="armed <= 76.5\nentropy = 0.929\nsamples = 29\nvalue = [19, 10]\nclass = No"] ;
873 -> 874 ;
875 [label="age <= 21.5\nentropy = 0.98\nsamples = 24\nvalue = [14, 10]\nclass = No"] ;
874 -> 875 ;
876 [label="age <= 20.5\nentropy = 0.722\nsamples = 10\nvalue = [8, 2]\nclass = No"] ;
875 -> 876 ;
877 [label="age <= 19.5\nentropy = 0.863\nsamples = 7\nvalue = [5, 2]\nclass = No"] ;
876 -> 877 ;
878 [label="armed <= 74.5\nentropy = 0.65\nsamples = 6\nvalue = [5, 1]\nclass = No"] ;
877 -> 878 ;
879 [label="entropy = 0.0\nsamples = 1\nvalue = [0, 1]\nclass = Yes"] ;
878 -> 879 ;
880 [label="entropy = 0.0\nsamples = 5\nvalue = [5, 0]\nclass = No"] ;
878 -> 880 ;
881 [label="entropy = 0.0\nsamples = 1\nvalue = [0, 1]\nclass = Yes"] ;
877 -> 881 ;
882 [label="entropy = 0.0\nsamples = 3\nvalue = [3, 0]\nclass = No"] ;
876 -> 882 ;
883 [label="armed <= 74.5\nentropy = 0.985\nsamples = 14\nvalue = [6, 8]\nclass = Yes"] ;
875 -> 883 ;
884 [label="entropy = 0.0\nsamples = 3\nvalue = [0, 3]\nclass = Yes"] ;
883 -> 884 ;
885 [label="body_camera <= 0.5\nentropy = 0.994\nsamples = 11\nvalue = [6, 5]\nclass = No"] ;
883 -> 885 ;
886 [label="age <= 22.5\nentropy = 0.991\nsamples = 9\nvalue = [4, 5]\nclass = Yes"] ;
885 -> 886 ;
887 [label="entropy = 0.0\nsamples = 1\nvalue = [1, 0]\nclass = No"] ;
886 -> 887 ;
888 [label="age <= 26.0\nentropy = 0.954\nsamples = 8\nvalue = [3, 5]\nclass = Yes"] ;
886 -> 888 ;
889 [label="entropy = 0.0\nsamples = 3\nvalue = [0, 3]\nclass = Yes"] ;
888 -> 889 ;
890 [label="age <= 27.5\nentropy = 0.971\nsamples = 5\nvalue = [3, 2]\nclass = No"] ;
888 -> 890 ;
891 [label="race <= 1.5\nentropy = 1.0\nsamples = 4\nvalue = [2, 2]\nclass = No"] ;
890 -> 891 ;
892 [label="armed <= 75.5\nentropy = 0.918\nsamples = 3\nvalue = [2, 1]\nclass = No"] ;
891 -> 892 ;
893 [label="entropy = 1.0\nsamples = 2\nvalue = [1, 1]\nclass = No"] ;
892 -> 893 ;
894 [label="entropy = 0.0\nsamples = 1\nvalue = [1, 0]\nclass = No"] ;
892 -> 894 ;
895 [label="entropy = 0.0\nsamples = 1\nvalue = [0, 1]\nclass = Yes"] ;
891 -> 895 ;
896 [label="entropy = 0.0\nsamples = 1\nvalue = [1, 0]\nclass = No"] ;
890 -> 896 ;
897 [label="entropy = 0.0\nsamples = 2\nvalue = [2, 0]\nclass = No"] ;
885 -> 897 ;
898 [label="entropy = 0.0\nsamples = 5\nvalue = [5, 0]\nclass = No"] ;
874 -> 898 ;
899 [label="armed <= 77.5\nentropy = 0.337\nsamples = 16\nvalue = [15, 1]\nclass = No"] ;
873 -> 899 ;
900 [label="entropy = 0.0\nsamples = 14\nvalue = [14, 0]\nclass = No"] ;
899 -> 900 ;
901 [label="race <= 1.5\nentropy = 1.0\nsamples = 2\nvalue = [1, 1]\nclass = No"] ;
899 -> 901 ;
902 [label="entropy = 0.0\nsamples = 1\nvalue = [0, 1]\nclass = Yes"] ;
901 -> 902 ;
903 [label="entropy = 0.0\nsamples = 1\nvalue = [1, 0]\nclass = No"] ;
901 -> 903 ;
904 [label="race <= 0.5\nentropy = 0.985\nsamples = 7\nvalue = [3, 4]\nclass = Yes"] ;
872 -> 904 ;
905 [label="entropy = 0.0\nsamples = 2\nvalue = [0, 2]\nclass = Yes"] ;
904 -> 905 ;
906 [label="race <= 1.5\nentropy = 0.971\nsamples = 5\nvalue = [3, 2]\nclass = No"] ;
904 -> 906 ;
907 [label="manner_of_death <= 0.5\nentropy = 1.0\nsamples = 4\nvalue = [2, 2]\nclass = No"] ;
906 -> 907 ;
908 [label="age <= 42.5\nentropy = 0.918\nsamples = 3\nvalue = [1, 2]\nclass = Yes"] ;
907 -> 908 ;
909 [label="entropy = 0.0\nsamples = 2\nvalue = [0, 2]\nclass = Yes"] ;
908 -> 909 ;
910 [label="entropy = 0.0\nsamples = 1\nvalue = [1, 0]\nclass = No"] ;
908 -> 910 ;
911 [label="entropy = 0.0\nsamples = 1\nvalue = [1, 0]\nclass = No"] ;
907 -> 911 ;
912 [label="entropy = 0.0\nsamples = 1\nvalue = [1, 0]\nclass = No"] ;
906 -> 912 ;
913 [label="entropy = 0.0\nsamples = 5\nvalue = [5, 0]\nclass = No"] ;
871 -> 913 ;
914 [label="age <= 56.0\nentropy = 1.0\nsamples = 8\nvalue = [4, 4]\nclass = No"] ;
870 -> 914 ;
915 [label="entropy = 0.0\nsamples = 3\nvalue = [0, 3]\nclass = Yes"] ;
914 -> 915 ;
916 [label="age <= 60.5\nentropy = 0.722\nsamples = 5\nvalue = [4, 1]\nclass = No"] ;
914 -> 916 ;
917 [label="entropy = 0.0\nsamples = 2\nvalue = [2, 0]\nclass = No"] ;
916 -> 917 ;
918 [label="race <= 1.5\nentropy = 0.918\nsamples = 3\nvalue = [2, 1]\nclass = No"] ;
916 -> 918 ;
919 [label="entropy = 1.0\nsamples = 2\nvalue = [1, 1]\nclass = No"] ;
918 -> 919 ;
920 [label="entropy = 0.0\nsamples = 1\nvalue = [1, 0]\nclass = No"] ;
918 -> 920 ;
921 [label="entropy = 0.0\nsamples = 1\nvalue = [0, 1]\nclass = Yes"] ;
869 -> 921 ;
922 [label="age <= 35.5\nentropy = 0.381\nsamples = 27\nvalue = [25, 2]\nclass = No"] ;
614 -> 922 ;
923 [label="entropy = 0.0\nsamples = 16\nvalue = [16, 0]\nclass = No"] ;
922 -> 923 ;
924 [label="armed <= 76.5\nentropy = 0.684\nsamples = 11\nvalue = [9, 2]\nclass = No"] ;
922 -> 924 ;
925 [label="age <= 39.5\nentropy = 0.469\nsamples = 10\nvalue = [9, 1]\nclass = No"] ;
924 -> 925 ;
926 [label="entropy = 0.0\nsamples = 4\nvalue = [4, 0]\nclass = No"] ;
925 -> 926 ;
927 [label="age <= 42.5\nentropy = 0.65\nsamples = 6\nvalue = [5, 1]\nclass = No"] ;
925 -> 927 ;
928 [label="entropy = 1.0\nsamples = 2\nvalue = [1, 1]\nclass = No"] ;
927 -> 928 ;
929 [label="entropy = 0.0\nsamples = 4\nvalue = [4, 0]\nclass = No"] ;
927 -> 929 ;
930 [label="entropy = 0.0\nsamples = 1\nvalue = [0, 1]\nclass = Yes"] ;
924 -> 930 ;
931 [label="entropy = 0.0\nsamples = 17\nvalue = [17, 0]\nclass = No"] ;
613 -> 931 ;
932 [label="flee <= 2.5\nentropy = 0.947\nsamples = 1153\nvalue = [732, 421]\nclass = No"] ;
336 -> 932 ;
933 [label="age <= 53.5\nentropy = 0.954\nsamples = 1112\nvalue = [696, 416]\nclass = No"] ;
932 -> 933 ;
934 [label="armed <= 74.5\nentropy = 0.935\nsamples = 872\nvalue = [566, 306]\nclass = No"] ;
933 -> 934 ;
935 [label="armed <= 31.0\nentropy = 0.947\nsamples = 781\nvalue = [496, 285]\nclass = No"] ;
934 -> 935 ;
936 [label="age <= 33.5\nentropy = 0.913\nsamples = 527\nvalue = [354, 173]\nclass = No"] ;
935 -> 936 ;
937 [label="race <= 4.5\nentropy = 0.949\nsamples = 212\nvalue = [134, 78]\nclass = No"] ;
936 -> 937 ;
938 [label="armed <= 21.5\nentropy = 0.811\nsamples = 4\nvalue = [1, 3]\nclass = Yes"] ;
937 -> 938 ;
939 [label="entropy = 0.0\nsamples = 1\nvalue = [0, 1]\nclass = Yes"] ;
938 -> 939 ;
940 [label="age <= 28.0\nentropy = 0.918\nsamples = 3\nvalue = [1, 2]\nclass = Yes"] ;
938 -> 940 ;
941 [label="entropy = 0.0\nsamples = 1\nvalue = [0, 1]\nclass = Yes"] ;
940 -> 941 ;
942 [label="body_camera <= 0.5\nentropy = 1.0\nsamples = 2\nvalue = [1, 1]\nclass = No"] ;
940 -> 942 ;
943 [label="entropy = 0.0\nsamples = 1\nvalue = [1, 0]\nclass = No"] ;
942 -> 943 ;
944 [label="entropy = 0.0\nsamples = 1\nvalue = [0, 1]\nclass = Yes"] ;
942 -> 944 ;
945 [label="age <= 15.5\nentropy = 0.943\nsamples = 208\nvalue = [133, 75]\nclass = No"] ;
937 -> 945 ;
946 [label="entropy = 0.0\nsamples = 1\nvalue = [0, 1]\nclass = Yes"] ;
945 -> 946 ;
947 [label="manner_of_death <= 0.5\nentropy = 0.941\nsamples = 207\nvalue = [133, 74]\nclass = No"] ;
945 -> 947 ;
948 [label="threat_level <= 0.5\nentropy = 0.943\nsamples = 205\nvalue = [131, 74]\nclass = No"] ;
947 -> 948 ;
949 [label="age <= 16.5\nentropy = 0.928\nsamples = 169\nvalue = [111, 58]\nclass = No"] ;
948 -> 949 ;
950 [label="entropy = 0.0\nsamples = 1\nvalue = [1, 0]\nclass = No"] ;
949 -> 950 ;
951 [label="age <= 27.5\nentropy = 0.93\nsamples = 168\nvalue = [110, 58]\nclass = No"] ;
949 -> 951 ;
952 [label="gender <= 0.5\nentropy = 0.901\nsamples = 82\nvalue = [56, 26]\nclass = No"] ;
951 -> 952 ;
953 [label="entropy = 0.0\nsamples = 3\nvalue = [3, 0]\nclass = No"] ;
952 -> 953 ;
954 [label="armed <= 17.5\nentropy = 0.914\nsamples = 79\nvalue = [53, 26]\nclass = No"] ;
952 -> 954 ;
955 [label="entropy = 0.0\nsamples = 2\nvalue = [2, 0]\nclass = No"] ;
954 -> 955 ;
956 [label="age <= 24.5\nentropy = 0.923\nsamples = 77\nvalue = [51, 26]\nclass = No"] ;
954 -> 956 ;
957 [label="age <= 22.5\nentropy = 0.956\nsamples = 45\nvalue = [28, 17]\nclass = No"] ;
956 -> 957 ;
958 [label="age <= 20.5\nentropy = 0.894\nsamples = 29\nvalue = [20, 9]\nclass = No"] ;
957 -> 958 ;
959 [label="age <= 19.5\nentropy = 0.949\nsamples = 19\nvalue = [12, 7]\nclass = No"] ;
958 -> 959 ;
960 [label="body_camera <= 0.5\nentropy = 0.918\nsamples = 12\nvalue = [8, 4]\nclass = No"] ;
959 -> 960 ;
961 [label="age <= 18.5\nentropy = 0.946\nsamples = 11\nvalue = [7, 4]\nclass = No"] ;
960 -> 961 ;
962 [label="age <= 17.5\nentropy = 0.918\nsamples = 9\nvalue = [6, 3]\nclass = No"] ;
961 -> 962 ;
963 [label="entropy = 0.918\nsamples = 3\nvalue = [2, 1]\nclass = No"] ;
962 -> 963 ;
964 [label="entropy = 0.918\nsamples = 6\nvalue = [4, 2]\nclass = No"] ;
962 -> 964 ;
965 [label="entropy = 1.0\nsamples = 2\nvalue = [1, 1]\nclass = No"] ;
961 -> 965 ;
966 [label="entropy = 0.0\nsamples = 1\nvalue = [1, 0]\nclass = No"] ;
960 -> 966 ;
967 [label="body_camera <= 0.5\nentropy = 0.985\nsamples = 7\nvalue = [4, 3]\nclass = No"] ;
959 -> 967 ;
968 [label="entropy = 0.918\nsamples = 6\nvalue = [4, 2]\nclass = No"] ;
967 -> 968 ;
969 [label="entropy = 0.0\nsamples = 1\nvalue = [0, 1]\nclass = Yes"] ;
967 -> 969 ;
970 [label="age <= 21.5\nentropy = 0.722\nsamples = 10\nvalue = [8, 2]\nclass = No"] ;
958 -> 970 ;
971 [label="entropy = 0.722\nsamples = 5\nvalue = [4, 1]\nclass = No"] ;
970 -> 971 ;
972 [label="entropy = 0.722\nsamples = 5\nvalue = [4, 1]\nclass = No"] ;
970 -> 972 ;
973 [label="body_camera <= 0.5\nentropy = 1.0\nsamples = 16\nvalue = [8, 8]\nclass = No"] ;
957 -> 973 ;
974 [label="age <= 23.5\nentropy = 0.985\nsamples = 14\nvalue = [6, 8]\nclass = Yes"] ;
973 -> 974 ;
975 [label="entropy = 0.811\nsamples = 4\nvalue = [1, 3]\nclass = Yes"] ;
974 -> 975 ;
976 [label="entropy = 1.0\nsamples = 10\nvalue = [5, 5]\nclass = No"] ;
974 -> 976 ;
977 [label="entropy = 0.0\nsamples = 2\nvalue = [2, 0]\nclass = No"] ;
973 -> 977 ;
978 [label="body_camera <= 0.5\nentropy = 0.857\nsamples = 32\nvalue = [23, 9]\nclass = No"] ;
956 -> 978 ;
979 [label="age <= 25.5\nentropy = 0.869\nsamples = 31\nvalue = [22, 9]\nclass = No"] ;
978 -> 979 ;
980 [label="entropy = 0.722\nsamples = 5\nvalue = [4, 1]\nclass = No"] ;
979 -> 980 ;
981 [label="age <= 26.5\nentropy = 0.89\nsamples = 26\nvalue = [18, 8]\nclass = No"] ;
979 -> 981 ;
982 [label="entropy = 0.89\nsamples = 13\nvalue = [9, 4]\nclass = No"] ;
981 -> 982 ;
983 [label="entropy = 0.89\nsamples = 13\nvalue = [9, 4]\nclass = No"] ;
981 -> 983 ;
984 [label="entropy = 0.0\nsamples = 1\nvalue = [1, 0]\nclass = No"] ;
978 -> 984 ;
985 [label="armed <= 17.5\nentropy = 0.952\nsamples = 86\nvalue = [54, 32]\nclass = No"] ;
951 -> 985 ;
986 [label="age <= 31.5\nentropy = 0.918\nsamples = 3\nvalue = [1, 2]\nclass = Yes"] ;
985 -> 986 ;
987 [label="entropy = 0.0\nsamples = 2\nvalue = [0, 2]\nclass = Yes"] ;
986 -> 987 ;
988 [label="entropy = 0.0\nsamples = 1\nvalue = [1, 0]\nclass = No"] ;
986 -> 988 ;
989 [label="age <= 28.5\nentropy = 0.944\nsamples = 83\nvalue = [53, 30]\nclass = No"] ;
985 -> 989 ;
990 [label="gender <= 0.5\nentropy = 1.0\nsamples = 10\nvalue = [5, 5]\nclass = No"] ;
989 -> 990 ;
991 [label="entropy = 0.0\nsamples = 1\nvalue = [1, 0]\nclass = No"] ;
990 -> 991 ;
992 [label="entropy = 0.991\nsamples = 9\nvalue = [4, 5]\nclass = Yes"] ;
990 -> 992 ;
993 [label="age <= 29.5\nentropy = 0.927\nsamples = 73\nvalue = [48, 25]\nclass = No"] ;
989 -> 993 ;
994 [label="body_camera <= 0.5\nentropy = 0.592\nsamples = 7\nvalue = [6, 1]\nclass = No"] ;
993 -> 994 ;
995 [label="entropy = 0.0\nsamples = 6\nvalue = [6, 0]\nclass = No"] ;
994 -> 995 ;
996 [label="entropy = 0.0\nsamples = 1\nvalue = [0, 1]\nclass = Yes"] ;
994 -> 996 ;
997 [label="body_camera <= 0.5\nentropy = 0.946\nsamples = 66\nvalue = [42, 24]\nclass = No"] ;
993 -> 997 ;
998 [label="gender <= 0.5\nentropy = 0.965\nsamples = 59\nvalue = [36, 23]\nclass = No"] ;
997 -> 998 ;
999 [label="age <= 32.5\nentropy = 0.918\nsamples = 3\nvalue = [1, 2]\nclass = Yes"] ;
998 -> 999 ;
1000 [label="entropy = 0.0\nsamples = 2\nvalue = [0, 2]\nclass = Yes"] ;
999 -> 1000 ;
1001 [label="entropy = 0.0\nsamples = 1\nvalue = [1, 0]\nclass = No"] ;
999 -> 1001 ;
1002 [label="age <= 32.5\nentropy = 0.954\nsamples = 56\nvalue = [35, 21]\nclass = No"] ;
998 -> 1002 ;
1003 [label="age <= 31.5\nentropy = 0.957\nsamples = 37\nvalue = [23, 14]\nclass = No"] ;
1002 -> 1003 ;
1004 [label="age <= 30.5\nentropy = 0.954\nsamples = 24\nvalue = [15, 9]\nclass = No"] ;
1003 -> 1004 ;
1005 [label="entropy = 0.954\nsamples = 8\nvalue = [5, 3]\nclass = No"] ;
1004 -> 1005 ;
1006 [label="entropy = 0.954\nsamples = 16\nvalue = [10, 6]\nclass = No"] ;
1004 -> 1006 ;
1007 [label="entropy = 0.961\nsamples = 13\nvalue = [8, 5]\nclass = No"] ;
1003 -> 1007 ;
1008 [label="entropy = 0.949\nsamples = 19\nvalue = [12, 7]\nclass = No"] ;
1002 -> 1008 ;
1009 [label="age <= 32.5\nentropy = 0.592\nsamples = 7\nvalue = [6, 1]\nclass = No"] ;
997 -> 1009 ;
1010 [label="entropy = 0.0\nsamples = 5\nvalue = [5, 0]\nclass = No"] ;
1009 -> 1010 ;
1011 [label="entropy = 1.0\nsamples = 2\nvalue = [1, 1]\nclass = No"] ;
1009 -> 1011 ;
1012 [label="gender <= 0.5\nentropy = 0.991\nsamples = 36\nvalue = [20, 16]\nclass = No"] ;
948 -> 1012 ;
1013 [label="entropy = 0.0\nsamples = 2\nvalue = [0, 2]\nclass = Yes"] ;
1012 -> 1013 ;
1014 [label="age <= 21.0\nentropy = 0.977\nsamples = 34\nvalue = [20, 14]\nclass = No"] ;
1012 -> 1014 ;
1015 [label="entropy = 0.0\nsamples = 2\nvalue = [0, 2]\nclass = Yes"] ;
1014 -> 1015 ;
1016 [label="age <= 22.5\nentropy = 0.954\nsamples = 32\nvalue = [20, 12]\nclass = No"] ;
1014 -> 1016 ;
1017 [label="entropy = 0.0\nsamples = 3\nvalue = [3, 0]\nclass = No"] ;
1016 -> 1017 ;
1018 [label="age <= 25.5\nentropy = 0.978\nsamples = 29\nvalue = [17, 12]\nclass = No"] ;
1016 -> 1018 ;
1019 [label="age <= 24.5\nentropy = 0.722\nsamples = 5\nvalue = [1, 4]\nclass = Yes"] ;
1018 -> 1019 ;
1020 [label="threat_level <= 1.5\nentropy = 1.0\nsamples = 2\nvalue = [1, 1]\nclass = No"] ;
1019 -> 1020 ;
1021 [label="entropy = 0.0\nsamples = 1\nvalue = [1, 0]\nclass = No"] ;
1020 -> 1021 ;
1022 [label="entropy = 0.0\nsamples = 1\nvalue = [0, 1]\nclass = Yes"] ;
1020 -> 1022 ;
1023 [label="entropy = 0.0\nsamples = 3\nvalue = [0, 3]\nclass = Yes"] ;
1019 -> 1023 ;
1024 [label="age <= 27.5\nentropy = 0.918\nsamples = 24\nvalue = [16, 8]\nclass = No"] ;
1018 -> 1024 ;
1025 [label="entropy = 0.0\nsamples = 3\nvalue = [3, 0]\nclass = No"] ;
1024 -> 1025 ;
1026 [label="body_camera <= 0.5\nentropy = 0.959\nsamples = 21\nvalue = [13, 8]\nclass = No"] ;
1024 -> 1026 ;
1027 [label="age <= 28.5\nentropy = 0.934\nsamples = 20\nvalue = [13, 7]\nclass = No"] ;
1026 -> 1027 ;
1028 [label="entropy = 0.918\nsamples = 3\nvalue = [1, 2]\nclass = Yes"] ;
1027 -> 1028 ;
1029 [label="armed <= 5.5\nentropy = 0.874\nsamples = 17\nvalue = [12, 5]\nclass = No"] ;
1027 -> 1029 ;
1030 [label="entropy = 0.0\nsamples = 1\nvalue = [1, 0]\nclass = No"] ;
1029 -> 1030 ;
1031 [label="armed <= 11.0\nentropy = 0.896\nsamples = 16\nvalue = [11, 5]\nclass = No"] ;
1029 -> 1031 ;
1032 [label="entropy = 0.0\nsamples = 1\nvalue = [0, 1]\nclass = Yes"] ;
1031 -> 1032 ;
1033 [label="age <= 31.5\nentropy = 0.837\nsamples = 15\nvalue = [11, 4]\nclass = No"] ;
1031 -> 1033 ;
1034 [label="threat_level <= 1.5\nentropy = 0.722\nsamples = 10\nvalue = [8, 2]\nclass = No"] ;
1033 -> 1034 ;
1035 [label="age <= 29.5\nentropy = 0.764\nsamples = 9\nvalue = [7, 2]\nclass = No"] ;
1034 -> 1035 ;
1036 [label="entropy = 0.811\nsamples = 4\nvalue = [3, 1]\nclass = No"] ;
1035 -> 1036 ;
1037 [label="age <= 30.5\nentropy = 0.722\nsamples = 5\nvalue = [4, 1]\nclass = No"] ;
1035 -> 1037 ;
1038 [label="entropy = 0.0\nsamples = 1\nvalue = [1, 0]\nclass = No"] ;
1037 -> 1038 ;
1039 [label="entropy = 0.811\nsamples = 4\nvalue = [3, 1]\nclass = No"] ;
1037 -> 1039 ;
1040 [label="entropy = 0.0\nsamples = 1\nvalue = [1, 0]\nclass = No"] ;
1034 -> 1040 ;
1041 [label="age <= 32.5\nentropy = 0.971\nsamples = 5\nvalue = [3, 2]\nclass = No"] ;
1033 -> 1041 ;
1042 [label="entropy = 1.0\nsamples = 2\nvalue = [1, 1]\nclass = No"] ;
1041 -> 1042 ;
1043 [label="entropy = 0.918\nsamples = 3\nvalue = [2, 1]\nclass = No"] ;
1041 -> 1043 ;
1044 [label="entropy = 0.0\nsamples = 1\nvalue = [0, 1]\nclass = Yes"] ;
1026 -> 1044 ;
1045 [label="entropy = 0.0\nsamples = 2\nvalue = [2, 0]\nclass = No"] ;
947 -> 1045 ;
1046 [label="age <= 48.5\nentropy = 0.883\nsamples = 315\nvalue = [220, 95]\nclass = No"] ;
936 -> 1046 ;
1047 [label="gender <= 0.5\nentropy = 0.84\nsamples = 223\nvalue = [163, 60]\nclass = No"] ;
1046 -> 1047 ;
1048 [label="age <= 40.5\nentropy = 0.997\nsamples = 15\nvalue = [8, 7]\nclass = No"] ;
1047 -> 1048 ;
1049 [label="age <= 36.5\nentropy = 0.722\nsamples = 5\nvalue = [4, 1]\nclass = No"] ;
1048 -> 1049 ;
1050 [label="threat_level <= 0.5\nentropy = 0.918\nsamples = 3\nvalue = [2, 1]\nclass = No"] ;
1049 -> 1050 ;
1051 [label="age <= 35.5\nentropy = 1.0\nsamples = 2\nvalue = [1, 1]\nclass = No"] ;
1050 -> 1051 ;
1052 [label="entropy = 0.0\nsamples = 1\nvalue = [1, 0]\nclass = No"] ;
1051 -> 1052 ;
1053 [label="entropy = 0.0\nsamples = 1\nvalue = [0, 1]\nclass = Yes"] ;
1051 -> 1053 ;
1054 [label="entropy = 0.0\nsamples = 1\nvalue = [1, 0]\nclass = No"] ;
1050 -> 1054 ;
1055 [label="entropy = 0.0\nsamples = 2\nvalue = [2, 0]\nclass = No"] ;
1049 -> 1055 ;
1056 [label="age <= 47.5\nentropy = 0.971\nsamples = 10\nvalue = [4, 6]\nclass = Yes"] ;
1048 -> 1056 ;
1057 [label="age <= 46.5\nentropy = 0.991\nsamples = 9\nvalue = [4, 5]\nclass = Yes"] ;
1056 -> 1057 ;
1058 [label="threat_level <= 0.5\nentropy = 0.954\nsamples = 8\nvalue = [3, 5]\nclass = Yes"] ;
1057 -> 1058 ;
1059 [label="age <= 44.5\nentropy = 0.985\nsamples = 7\nvalue = [3, 4]\nclass = Yes"] ;
1058 -> 1059 ;
1060 [label="age <= 41.5\nentropy = 0.918\nsamples = 6\nvalue = [2, 4]\nclass = Yes"] ;
1059 -> 1060 ;
1061 [label="entropy = 1.0\nsamples = 2\nvalue = [1, 1]\nclass = No"] ;
1060 -> 1061 ;
1062 [label="age <= 43.5\nentropy = 0.811\nsamples = 4\nvalue = [1, 3]\nclass = Yes"] ;
1060 -> 1062 ;
1063 [label="entropy = 0.0\nsamples = 2\nvalue = [0, 2]\nclass = Yes"] ;
1062 -> 1063 ;
1064 [label="entropy = 1.0\nsamples = 2\nvalue = [1, 1]\nclass = No"] ;
1062 -> 1064 ;
1065 [label="entropy = 0.0\nsamples = 1\nvalue = [1, 0]\nclass = No"] ;
1059 -> 1065 ;
1066 [label="entropy = 0.0\nsamples = 1\nvalue = [0, 1]\nclass = Yes"] ;
1058 -> 1066 ;
1067 [label="entropy = 0.0\nsamples = 1\nvalue = [1, 0]\nclass = No"] ;
1057 -> 1067 ;
1068 [label="entropy = 0.0\nsamples = 1\nvalue = [0, 1]\nclass = Yes"] ;
1056 -> 1068 ;
